{"learner":{"attributes":{},"feature_names":["em_diff","tempo_avg","tempo_diff","oe_diff","de_diff","pythag_diff","sos_diff","home_advantage","em_tempo_interaction","apl_off_diff","apl_def_diff","apl_off_mismatch_team1","apl_off_mismatch_team2","tempo_control_factor","luck_team1","luck_team2","luck_diff","luck_regression_expected","three_point_pct_team1","three_point_pct_team2","three_point_dependency_avg","scoring_variance_score","ft_reliance_diff","two_point_reliance_diff","momentum_score_team1","momentum_score_team2","momentum_diff","fg3_pct_diff","fg2_pct_diff","ft_pct_diff","assist_rate_diff","steal_rate_diff","block_pct_diff","shooting_quality_team1","shooting_quality_team2","height_diff","experience_diff","continuity_diff","bench_minutes_diff","rating_momentum_4wk","rating_acceleration","preseason_deviation"],"feature_types":["float","float","float","float","float","float","float","float","float","float","float","float","float","float","float","float","float","float","float","float","float","float","float","float","float","float","float","float","float","float","float","float","float","float","float","float","float","float","float","float","float","float"],"gradient_booster":{"model":{"cats":{"enc":[],"feature_segments":[],"sorted_idx":[]},"gbtree_model_param":{"num_parallel_tree":"1","num_trees":"100"},"iteration_indptr":[0,1,2,3,4,5,6,7,8,9,10,11,12,13,14,15,16,17,18,19,20,21,22,23,24,25,26,27,28,29,30,31,32,33,34,35,36,37,38,39,40,41,42,43,44,45,46,47,48,49,50,51,52,53,54,55,56,57,58,59,60,61,62,63,64,65,66,67,68,69,70,71,72,73,74,75,76,77,78,79,80,81,82,83,84,85,86,87,88,89,90,91,92,93,94,95,96,97,98,99,100],"tree_info":[0,0,0,0,0,0,0,0,0,0,0,0,0,0,0,0,0,0,0,0,0,0,0,0,0,0,0,0,0,0,0,0,0,0,0,0,0,0,0,0,0,0,0,0,0,0,0,0,0,0,0,0,0,0,0,0,0,0,0,0,0,0,0,0,0,0,0,0,0,0,0,0,0,0,0,0,0,0,0,0,0,0,0,0,0,0,0,0,0,0,0,0,0,0,0,0,0,0,0,0],"trees":[{"base_weights":[-0E0,-1.7844908E0,5.4437504E0,-4.3804626E0,-1.3037804E-1,4.834043E0,1.0078489E1,-1.8822439E-2,-4.9023578E-1,-7.787684E-2,2.014222E-1,5.3008384E-1,4.751653E-2,1.9236186E-1,1.1132079E0],"categories":[],"categories_nodes":[],"categories_segments":[],"categories_sizes":[],"default_left":[0,0,0,0,0,0,0,0,0,0,0,0,0,0,0],"id":0,"left_children":[1,3,5,7,9,11,13,-1,-1,-1,-1,-1,-1,-1,-1],"loss_changes":[2.3333805E4,7.7668774E3,1.6255078E3,1.5388564E3,1.5393801E3,1.0671572E3,5.615288E2,0E0,0E0,0E0,0E0,0E0,0E0,0E0,0E0],"parents":[2147483647,0,0,1,1,2,2,3,3,4,4,5,5,6,6],"right_children":[2,4,6,8,10,12,14,-1,-1,-1,-1,-1,-1,-1,-1],"split_conditions":[6.86156E1,6.6541E1,7.088265E1,-1.01E0,3.48E-2,9.4E-1,-4.83E-2,-1.8822439E-2,-4.9023578E-1,-7.787684E-2,2.014222E-1,5.3008384E-1,4.751653E-2,1.9236186E-1,1.1132079E0],"split_indices":[1,1,1,10,14,12,14,0,0,0,0,0,0,0,0],"split_type":[0,0,0,0,0,0,0,0,0,0,0,0,0,0,0],"sum_hessian":[2.4E3,1.808E3,5.92E2,7.03E2,1.105E3,5.25E2,6.7E1,7.8E1,6.25E2,8.49E2,2.56E2,4.74E2,5.1E1,8E0,5.9E1],"tree_param":{"num_deleted":"0","num_feature":"42","num_nodes":"15","size_leaf_vector":"1"}},{"base_weights":[5.909009E-4,-2.7331898E0,2.9522135E0,-5.83386E0,-2.044751E0,1.2483773E0,5.5142827E0,-4.9623284E-1,-1.1579702E0,-2.5386056E-1,1.4477058E-2,5.373907E-1,2.2566851E-2,6.288109E-1,1.6916288E-1],"categories":[],"categories_nodes":[],"categories_segments":[],"categories_sizes":[],"default_left":[0,0,0,0,0,0,0,0,0,0,0,0,0,0,0],"id":1,"left_children":[1,3,5,7,9,11,13,-1,-1,-1,-1,-1,-1,-1,-1],"loss_changes":[1.9381977E4,2.6491562E3,5.034414E3,1.0726196E3,1.1057012E3,2.9305823E3,1.3522344E3,0E0,0E0,0E0,0E0,0E0,0E0,0E0,0E0],"parents":[2147483647,0,0,1,1,2,2,3,3,4,4,5,5,6,6],"right_children":[2,4,6,8,10,12,14,-1,-1,-1,-1,-1,-1,-1,-1],"split_conditions":[6.750165E1,6.527725E1,6.898415E1,3.624E-1,8.267E0,-9.5E-1,6.8E-1,-4.9623284E-1,-1.1579702E0,-2.5386056E-1,1.4477058E-2,5.373907E-1,2.2566851E-2,6.288109E-1,1.6916288E-1],"split_indices":[1,1,1,5,4,12,10,0,0,0,0,0,0,0,0],"split_type":[0,0,0,0,0,0,0,0,0,0,0,0,0,0,0],"sum_hessian":[2.4E3,1.246E3,1.154E3,2.25E2,1.021E3,6.94E2,4.6E2,1.97E2,2.8E1,8.33E2,1.88E2,1.37E2,5.57E2,3.82E2,7.8E1],"tree_param":{"num_deleted":"0","num_feature":"42","num_nodes":"15","size_leaf_vector":"1"}},{"base_weights":[3.2327152E-4,-2.4613836E0,2.6582005E0,-4.9154367E0,-1.7390434E0,1.1243725E0,4.9646044E0,-4.128181E-1,-9.732416E-1,-1.0698811E-1,-3.169463E-1,4.8404175E-1,2.0315643E-2,5.660936E-1,1.5246111E-1],"categories":[],"categories_nodes":[],"categories_segments":[],"categories_sizes":[],"default_left":[0,0,0,0,0,0,0,0,0,0,0,0,0,0,0],"id":2,"left_children":[1,3,5,7,9,11,13,-1,-1,-1,-1,-1,-1,-1,-1],"loss_changes":[1.5716101E4,2.2012954E3,4.079769E3,1.0316279E3,9.198667E2,2.377692E3,1.094919E3,0E0,0E0,0E0,0E0,0E0,0E0,0E0,0E0],"parents":[2147483647,0,0,1,1,2,2,3,3,4,4,5,5,6,6],"right_children":[2,4,6,8,10,12,14,-1,-1,-1,-1,-1,-1,-1,-1],"split_conditions":[6.750165E1,6.549655E1,6.898415E1,1.7E0,4.1627E0,-9.5E-1,6.8E-1,-4.128181E-1,-9.732416E-1,-1.0698811E-1,-3.169463E-1,4.8404175E-1,2.0315643E-2,5.660936E-1,1.5246111E-1],"split_indices":[1,1,1,9,6,12,10,0,0,0,0,0,0,0,0],"split_type":[0,0,0,0,0,0,0,0,0,0,0,0,0,0,0],"sum_hessian":[2.4E3,1.246E3,1.154E3,2.82E2,9.64E2,6.94E2,4.6E2,2.44E2,3.8E1,6.58E2,3.06E2,1.37E2,5.57E2,3.82E2,7.8E1],"tree_param":{"num_deleted":"0","num_feature":"42","num_nodes":"15","size_leaf_vector":"1"}},{"base_weights":[4.1139625E-5,-2.4035735E0,2.2226944E0,-5.0649333E0,-1.880281E0,6.006219E-1,4.0717125E0,-8.3149767E-1,-3.802852E-1,-2.4210368E-1,3.5510685E-2,-1.741372E-2,3.0324695E-1,9.2240065E-1,3.60253E-1],"categories":[],"categories_nodes":[],"categories_segments":[],"categories_sizes":[],"default_left":[0,0,0,0,0,0,0,0,0,0,0,0,0,0,0],"id":3,"left_children":[1,3,5,7,9,11,13,-1,-1,-1,-1,-1,-1,-1,-1],"loss_changes":[1.2832431E4,1.5969229E3,3.7401406E3,7.4241113E2,1.1687661E3,1.255622E3,1.3748115E3,0E0,0E0,0E0,0E0,0E0,0E0,0E0,0E0],"parents":[2147483647,0,0,1,1,2,2,3,3,4,4,5,5,6,6],"right_children":[2,4,6,8,10,12,14,-1,-1,-1,-1,-1,-1,-1,-1],"split_conditions":[6.7361E1,6.51561E1,6.864185E1,-5.4009E0,8.267E0,3.36E-2,-2.27E0,-8.3149767E-1,-3.802852E-1,-2.4210368E-1,3.5510685E-2,-1.741372E-2,3.0324695E-1,9.2240065E-1,3.60253E-1],"split_indices":[1,1,1,6,4,14,12,0,0,0,0,0,0,0,0],"split_type":[0,0,0,0,0,0,0,0,0,0,0,0,0,0,0],"sum_hessian":[2.4E3,1.153E3,1.247E3,1.88E2,9.65E2,6.65E2,5.82E2,5.1E1,1.37E2,7.77E2,1.88E2,5.05E2,1.6E2,4.7E1,5.35E2],"tree_param":{"num_deleted":"0","num_feature":"42","num_nodes":"15","size_leaf_vector":"1"}},{"base_weights":[9.259117E-5,-2.1839564E0,1.9863024E0,-3.0545447E0,-7.8899455E-1,7.8769684E-1,4.0565863E0,-3.989449E-1,-1.2752599E-1,5.874622E-1,-1.10317305E-1,6.327618E-1,3.84954E-2,3.6573306E-1,9.473446E-1],"categories":[],"categories_nodes":[],"categories_segments":[],"categories_sizes":[],"default_left":[0,0,0,0,0,0,0,0,0,0,0,0,0,0,0],"id":4,"left_children":[1,3,5,7,9,11,13,-1,-1,-1,-1,-1,-1,-1,-1],"loss_changes":[1.0419807E4,1.3865215E3,3.1179888E3,1.1654624E3,9.2926575E2,1.7773611E3,9.610498E2,0E0,0E0,0E0,0E0,0E0,0E0,0E0,0E0],"parents":[2147483647,0,0,1,1,2,2,3,3,4,4,5,5,6,6],"right_children":[2,4,6,8,10,12,14,-1,-1,-1,-1,-1,-1,-1,-1],"split_conditions":[6.734175E1,6.6541E1,6.898415E1,2.12E-2,-3.21732E1,-5.0347E0,7.16159E1,-3.989449E-1,-1.2752599E-1,5.874622E-1,-1.10317305E-1,6.327618E-1,3.84954E-2,3.6573306E-1,9.473446E-1],"split_indices":[1,1,1,15,0,2,1,0,0,0,0,0,0,0,0],"split_type":[0,0,0,0,0,0,0,0,0,0,0,0,0,0,0],"sum_hessian":[2.4E3,1.143E3,1.257E3,7.03E2,4.4E2,7.97E2,4.6E2,4.6E2,2.43E2,1.9E1,4.21E2,5.3E1,7.44E2,4.3E2,3E1],"tree_param":{"num_deleted":"0","num_feature":"42","num_nodes":"15","size_leaf_vector":"1"}},{"base_weights":[9.0282585E-4,-1.1039882E0,3.239788E0,-2.7498424E0,-3.7917156E-2,7.8127456E0,2.8446786E0,8.608438E-2,-3.201271E-1,-1.4874577E-2,9.130506E-1,1.2845159E-1,1.0197959E0,2.6878637E-1,1.6963834E0],"categories":[],"categories_nodes":[],"categories_segments":[],"categories_sizes":[],"default_left":[0,0,0,0,0,0,0,0,0,0,0,0,0,0,0],"id":5,"left_children":[1,3,5,7,9,11,13,-1,-1,-1,-1,-1,-1,-1,-1],"loss_changes":[8.596046E3,3.1421013E3,1.0806763E3,1.1504868E3,1.1060022E3,7.3317065E2,1.2011885E3,0E0,0E0,0E0,0E0,0E0,0E0,0E0,0E0],"parents":[2147483647,0,0,1,1,2,2,3,3,4,4,5,5,6,6],"right_children":[2,4,6,8,10,12,14,-1,-1,-1,-1,-1,-1,-1,-1],"split_conditions":[6.857285E1,6.6541E1,-2.27E0,-1.01E0,8.0359E0,-5.57E-2,7.23945E1,8.608438E-2,-3.201271E-1,-1.4874577E-2,9.130506E-1,1.2845159E-1,1.0197959E0,2.6878637E-1,1.6963834E0],"split_indices":[1,1,12,10,2,16,1,0,0,0,0,0,0,0,0],"split_type":[0,0,0,0,0,0,0,0,0,0,0,0,0,0,0],"sum_hessian":[2.4E3,1.79E3,6.1E2,7.03E2,1.087E3,4.7E1,5.63E2,7.8E1,6.25E2,1.075E3,1.2E1,1.3E1,3.4E1,5.58E2,5E0],"tree_param":{"num_deleted":"0","num_feature":"42","num_nodes":"15","size_leaf_vector":"1"}},{"base_weights":[2.3901288E-3,-1.649028E0,1.7854342E0,-3.9888477E0,-1.2297882E0,4.6232204E0,1.2111974E0,-6.9141454E-1,-2.8569326E-1,-2.7439824E-1,-7.558938E-2,7.059786E-1,1.9549614E-1,2.4965184E-2,2.985324E-1],"categories":[],"categories_nodes":[],"categories_segments":[],"categories_sizes":[],"default_left":[0,0,0,0,0,0,0,0,0,0,0,0,0,0,0],"id":6,"left_children":[1,3,5,7,9,11,13,-1,-1,-1,-1,-1,-1,-1,-1],"loss_changes":[7.072826E3,1.2178118E3,1.8759609E3,6.050842E2,7.574806E2,1.2465664E3,1.6400103E3,0E0,0E0,0E0,0E0,0E0,0E0,0E0,0E0],"parents":[2147483647,0,0,1,1,2,2,3,3,4,4,5,5,6,6],"right_children":[2,4,6,8,10,12,14,-1,-1,-1,-1,-1,-1,-1,-1],"split_conditions":[6.750165E1,6.51561E1,-1.37E0,-5.4009E0,-4.21E-2,7.81E-1,6.898415E1,-6.9141454E-1,-2.8569326E-1,-2.7439824E-1,-7.558938E-2,7.059786E-1,1.9549614E-1,2.4965184E-2,2.985324E-1],"split_indices":[1,1,12,6,15,4,1,0,0,0,0,0,0,0,0],"split_type":[0,0,0,0,0,0,0,0,0,0,0,0,0,0,0],"sum_hessian":[2.4E3,1.246E3,1.154E3,1.88E2,1.058E3,1.93E2,9.61E2,5.1E1,1.37E2,2.51E2,8.07E2,1E2,9.3E1,6.24E2,3.37E2],"tree_param":{"num_deleted":"0","num_feature":"42","num_nodes":"15","size_leaf_vector":"1"}},{"base_weights":[2.105493E-3,-1.6268102E0,1.4834867E0,-3.3988295E0,-1.1891571E0,4.1125217E-1,2.7240474E0,-6.0501856E-1,-1.6951019E-1,9.14469E-2,-1.6106574E-1,2.2477953E-2,9.2055476E-1,-5.702023E-1,2.941564E-1],"categories":[],"categories_nodes":[],"categories_segments":[],"categories_sizes":[],"default_left":[0,0,0,0,0,0,0,0,0,0,0,0,0,0,0],"id":7,"left_children":[1,3,5,7,9,11,13,-1,-1,-1,-1,-1,-1,-1,-1],"loss_changes":[5.79612E3,8.827053E2,1.6719224E3,1.00985425E3,8.164005E2,1.1055573E3,1.0850254E3,0E0,0E0,0E0,0E0,0E0,0E0,0E0,0E0],"parents":[2147483647,0,0,1,1,2,2,3,3,4,4,5,5,6,6],"right_children":[2,4,6,8,10,12,14,-1,-1,-1,-1,-1,-1,-1,-1],"split_conditions":[6.734175E1,6.527725E1,6.864185E1,-1.805E0,-5.55E-2,6.9676E0,-6.773E-1,-6.0501856E-1,-1.6951019E-1,9.14469E-2,-1.6106574E-1,2.2477953E-2,9.2055476E-1,-5.702023E-1,2.941564E-1],"split_indices":[1,1,1,4,14,2,5,0,0,0,0,0,0,0,0],"split_type":[0,0,0,0,0,0,0,0,0,0,0,0,0,0,0],"sum_hessian":[2.4E3,1.143E3,1.257E3,2.25E2,9.18E2,6.75E2,5.82E2,8.7E1,1.38E2,1.53E2,7.65E2,6.62E2,1.3E1,1.4E1,5.68E2],"tree_param":{"num_deleted":"0","num_feature":"42","num_nodes":"15","size_leaf_vector":"1"}},{"base_weights":[1.8141587E-3,-1.4648725E0,1.3356676E0,-8.701105E-1,-2.57724E0,9.608758E-1,4.471527E0,-2.5679785E-1,-3.1447615E-2,-2.0710564E-1,-8.499767E-1,9.634253E-1,8.348984E-2,-2.4257727E-2,5.8936614E-1],"categories":[],"categories_nodes":[],"categories_segments":[],"categories_sizes":[],"default_left":[0,0,0,0,0,0,0,0,0,0,0,0,0,0,0],"id":8,"left_children":[1,3,5,7,9,11,13,-1,-1,-1,-1,-1,-1,-1,-1],"loss_changes":[4.699128E3,7.542761E2,1.4736804E3,7.036193E2,1.1744985E3,1.2201403E3,9.003428E2,0E0,0E0,0E0,0E0,0E0,0E0,0E0,0E0],"parents":[2147483647,0,0,1,1,2,2,3,3,4,4,5,5,6,6],"right_children":[2,4,6,8,10,12,14,-1,-1,-1,-1,-1,-1,-1,-1],"split_conditions":[6.734175E1,3.306E0,7.02867E1,6.549655E1,9E-2,-2.55E0,-1.72E-2,-2.5679785E-1,-3.1447615E-2,-2.0710564E-1,-8.499767E-1,9.634253E-1,8.348984E-2,-2.4257727E-2,5.8936614E-1],"split_indices":[1,6,1,1,16,12,14,0,0,0,0,0,0,0,0],"split_type":[0,0,0,0,0,0,0,0,0,0,0,0,0,0,0],"sum_hessian":[2.4E3,1.143E3,1.257E3,7.46E2,3.97E2,1.124E3,1.33E2,1.83E2,5.63E2,3.67E2,3E1,1.5E1,1.109E3,3.1E1,1.02E2],"tree_param":{"num_deleted":"0","num_feature":"42","num_nodes":"15","size_leaf_vector":"1"}},{"base_weights":[1.7239661E-3,-7.501123E-1,2.2057126E0,-1.9195484E0,7.1791676E-3,2.601015E0,-1.8359094E0,-1.1159085E0,-1.7701904E-1,-4.9932744E-2,1.689873E-1,-4.8701867E-1,2.802796E-1,1.4277147E-1,-8.1000245E-1],"categories":[],"categories_nodes":[],"categories_segments":[],"categories_sizes":[],"default_left":[0,0,0,0,0,0,0,0,0,0,0,0,0,0,0],"id":9,"left_children":[1,3,5,7,9,11,13,-1,-1,-1,-1,-1,-1,-1,-1],"loss_changes":[3.9803496E3,1.5863218E3,9.810237E2,9.5047217E2,9.282603E2,8.531465E2,1.1366361E3,0E0,0E0,0E0,0E0,0E0,0E0,0E0,0E0],"parents":[2147483647,0,0,1,1,2,2,3,3,4,4,5,5,6,6],"right_children":[2,4,6,8,10,12,14,-1,-1,-1,-1,-1,-1,-1,-1],"split_conditions":[6.857285E1,6.6541E1,9.4E-1,-1.98119E1,3.48E-2,-6.773E-1,4.341E0,-1.1159085E0,-1.7701904E-1,-4.9932744E-2,1.689873E-1,-4.8701867E-1,2.802796E-1,1.4277147E-1,-8.1000245E-1],"split_indices":[1,1,12,4,14,5,4,0,0,0,0,0,0,0,0],"split_type":[0,0,0,0,0,0,0,0,0,0,0,0,0,0,0],"sum_hessian":[2.4E3,1.79E3,6.1E2,7.03E2,1.087E3,5.56E2,5.4E1,1E1,6.93E2,8.36E2,2.51E2,1.4E1,5.42E2,3.6E1,1.8E1],"tree_param":{"num_deleted":"0","num_feature":"42","num_nodes":"15","size_leaf_vector":"1"}},{"base_weights":[6.907154E-4,-6.5527827E-1,2.0475292E0,-1.729431E0,2.2821069E-2,1.8464214E0,1.0082099E1,-2.606563E-1,-2.5729282E-2,5.4739036E-2,-1.5375446E-1,2.2553039E-1,-2.3568194E-1,-1.8723266E-1,1.2238864E0],"categories":[],"categories_nodes":[],"categories_segments":[],"categories_sizes":[],"default_left":[0,0,0,0,0,0,0,0,0,0,0,0,0,0,0],"id":10,"left_children":[1,3,5,7,9,11,13,-1,-1,-1,-1,-1,-1,-1,-1],"loss_changes":[3.2252136E3,1.3251376E3,9.222119E2,9.080896E2,9.142107E2,9.8492505E2,3.8491223E2,0E0,0E0,0E0,0E0,0E0,0E0,0E0,0E0],"parents":[2147483647,0,0,1,1,2,2,3,3,4,4,5,5,6,6],"right_children":[2,4,6,8,10,12,14,-1,-1,-1,-1,-1,-1,-1,-1],"split_conditions":[6.864185E1,6.6541E1,2.02875E1,1.75E-2,6.2842E0,9.4E-1,1.99203E1,-2.606563E-1,-2.5729282E-2,5.4739036E-2,-1.5375446E-1,2.2553039E-1,-2.3568194E-1,-1.8723266E-1,1.2238864E0],"split_indices":[1,1,6,15,6,12,0,0,0,0,0,0,0,0,0],"split_type":[0,0,0,0,0,0,0,0,0,0,0,0,0,0,0],"sum_hessian":[2.4E3,1.818E3,5.82E2,7.03E2,1.115E3,5.69E2,1.3E1,4.4E2,2.63E2,8.35E2,2.8E2,5.19E2,5E1,2E0,1.1E1],"tree_param":{"num_deleted":"0","num_feature":"42","num_nodes":"15","size_leaf_vector":"1"}},{"base_weights":[8.720287E-4,-9.3015844E-1,1.1957296E0,-3.205994E0,-7.1958816E-1,1.0071161E0,7.8110604E0,3.0345732E-2,-4.8975936E-1,1.6293727E-1,-9.4354235E-2,1.2081291E-1,-5.690052E-1,1.0723859E-1,1.321296E0],"categories":[],"categories_nodes":[],"categories_segments":[],"categories_sizes":[],"default_left":[0,0,0,0,0,0,0,0,0,0,0,0,0,0,0],"id":11,"left_children":[1,3,5,7,9,11,13,-1,-1,-1,-1,-1,-1,-1,-1],"loss_changes":[2.6721287E3,6.4425195E2,1.3038754E3,6.787163E2,6.522042E2,1.3849528E3,1.0400497E3,0E0,0E0,0E0,0E0,0E0,0E0,0E0,0E0],"parents":[2147483647,0,0,1,1,2,2,3,3,4,4,5,5,6,6],"right_children":[2,4,6,8,10,12,14,-1,-1,-1,-1,-1,-1,-1,-1],"split_conditions":[6.76823E1,6.4607E1,1.99041E1,-4.5E-1,-1.119E-1,1.73202E1,1E-1,3.0345732E-2,-4.8975936E-1,1.6293727E-1,-9.4354235E-2,1.2081291E-1,-5.690052E-1,1.0723859E-1,1.321296E0],"split_indices":[1,1,6,10,16,6,10,0,0,0,0,0,0,0,0],"split_type":[0,0,0,0,0,0,0,0,0,0,0,0,0,0,0],"sum_hessian":[2.4E3,1.349E3,1.051E3,1.13E2,1.236E3,1.023E3,2.8E1,3.7E1,7.6E1,1.07E2,1.129E3,9.94E2,2.9E1,1.3E1,1.5E1],"tree_param":{"num_deleted":"0","num_feature":"42","num_nodes":"15","size_leaf_vector":"1"}},{"base_weights":[1.0347468E-3,-5.7018155E-1,1.6755804E0,-3.2031897E-1,-3.0299165E0,1.2964854E0,4.6822276E0,1.4266174E-1,-7.6597475E-2,-1.0490586E-2,-5.4651487E-1,-1.4195731E-1,1.816872E-1,3.5943806E-2,6.114149E-1],"categories":[],"categories_nodes":[],"categories_segments":[],"categories_sizes":[],"default_left":[0,0,0,0,0,0,0,0,0,0,0,0,0,0,0],"id":12,"left_children":[1,3,5,7,9,11,13,-1,-1,-1,-1,-1,-1,-1,-1],"loss_changes":[2.297689E3,1.0994355E3,6.897523E2,1.2676986E3,1.1741776E3,7.715088E2,4.1806787E2,0E0,0E0,0E0,0E0,0E0,0E0,0E0,0E0],"parents":[2147483647,0,0,1,1,2,2,3,3,4,4,5,5,6,6],"right_children":[2,4,6,8,10,12,14,-1,-1,-1,-1,-1,-1,-1,-1],"split_conditions":[6.857285E1,1.09E0,7.088265E1,-5.9E-1,-5E-4,-1.79E0,-4.37E-2,1.4266174E-1,-7.6597475E-2,-1.0490586E-2,-5.4651487E-1,-1.4195731E-1,1.816872E-1,3.5943806E-2,6.114149E-1],"split_indices":[1,10,1,12,16,11,16,0,0,0,0,0,0,0,0],"split_type":[0,0,0,0,0,0,0,0,0,0,0,0,0,0,0],"sum_hessian":[2.4E3,1.79E3,6.1E2,1.626E3,1.64E2,5.43E2,6.7E1,3.3E2,1.296E3,7.5E1,8.9E1,8.7E1,4.56E2,1.7E1,5E1],"tree_param":{"num_deleted":"0","num_feature":"42","num_nodes":"15","size_leaf_vector":"1"}},{"base_weights":[1.0060975E-3,-9.328071E-1,8.502758E-1,-3.7253344E0,-7.3610395E-1,2.0882282E0,1.2408162E-1,-6.404595E-1,1.2712981E-1,1.8731652E-1,-1.0615945E-1,2.4562858E-1,-3.5265753E-1,-3.5296555E-3,6.6321546E-1],"categories":[],"categories_nodes":[],"categories_segments":[],"categories_sizes":[],"default_left":[0,0,0,0,0,0,0,0,0,0,0,0,0,0,0],"id":13,"left_children":[1,3,5,7,9,11,13,-1,-1,-1,-1,-1,-1,-1,-1],"loss_changes":[1.9049202E3,6.2520953E2,1.1304539E3,1.0127013E3,9.1065015E2,9.695104E2,8.244661E2,0E0,0E0,0E0,0E0,0E0,0E0,0E0,0E0],"parents":[2147483647,0,0,1,1,2,2,3,3,4,4,5,5,6,6],"right_children":[2,4,6,8,10,12,14,-1,-1,-1,-1,-1,-1,-1,-1],"split_conditions":[6.734175E1,-4.6891E0,0E0,2.67E0,-7E-1,1.12E0,3.08E0,-6.404595E-1,1.2712981E-1,1.8731652E-1,-1.0615945E-1,2.4562858E-1,-3.5265753E-1,-3.5296555E-3,6.6321546E-1],"split_indices":[1,2,7,11,12,10,9,0,0,0,0,0,0,0,0],"split_type":[0,0,0,0,0,0,0,0,0,0,0,0,0,0,0],"sum_hessian":[2.4E3,1.143E3,1.257E3,7.4E1,1.069E3,4.64E2,7.93E2,4.8E1,2.6E1,1.18E2,9.51E2,4.36E2,2.8E1,7.75E2,1.8E1],"tree_param":{"num_deleted":"0","num_feature":"42","num_nodes":"15","size_leaf_vector":"1"}},{"base_weights":[9.5821766E-4,-4.698036E-1,1.4699373E0,-1.5923213E0,8.6686105E-2,8.536698E-1,3.6531253E0,1.978875E-1,-2.231106E-1,-4.054667E-3,6.697837E-1,1.4207208E-1,-2.0445588E-1,-1.5243931E-1,4.7430292E-1],"categories":[],"categories_nodes":[],"categories_segments":[],"categories_sizes":[],"default_left":[0,0,0,0,0,0,0,0,0,0,0,0,0,0,0],"id":14,"left_children":[1,3,5,7,9,11,13,-1,-1,-1,-1,-1,-1,-1,-1],"loss_changes":[1.6611765E3,1.1365625E3,7.8081506E2,1.3800193E3,1.0246229E3,7.5225256E2,7.298557E2,0E0,0E0,0E0,0E0,0E0,0E0,0E0,0E0],"parents":[2147483647,0,0,1,1,2,2,3,3,4,4,5,5,6,6],"right_children":[2,4,6,8,10,12,14,-1,-1,-1,-1,-1,-1,-1,-1],"split_conditions":[6.864185E1,-4.016E0,7.953E0,-9.4E-1,1.47405E1,5.99E-2,-1.3243E1,1.978875E-1,-2.231106E-1,-4.054667E-3,6.697837E-1,1.4207208E-1,-2.0445588E-1,-1.5243931E-1,4.7430292E-1],"split_indices":[1,4,3,12,6,14,4,0,0,0,0,0,0,0,0],"split_type":[0,0,0,0,0,0,0,0,0,0,0,0,0,0,0],"sum_hessian":[2.4E3,1.818E3,5.82E2,6.02E2,1.216E3,4.55E2,1.27E2,9.1E1,5.11E2,1.194E3,2.2E1,3.81E2,7.4E1,2.2E1,1.05E2],"tree_param":{"num_deleted":"0","num_feature":"42","num_nodes":"15","size_leaf_vector":"1"}},{"base_weights":[1.2387353E-3,-1.2065761E0,5.020635E-1,1.8654071E0,-1.5924869E0,3.570422E-1,3.9715881E0,-9.8226756E-2,6.309622E-1,-1.9497855E-1,2.305285E-1,2.756481E-3,1.384257E-1,6.392939E-1,1.3592684E-1],"categories":[],"categories_nodes":[],"categories_segments":[],"categories_sizes":[],"default_left":[0,0,0,0,0,0,0,0,0,0,0,0,0,0,0],"id":15,"left_children":[1,3,5,7,9,11,13,-1,-1,-1,-1,-1,-1,-1,-1],"loss_changes":[1.4529089E3,8.3754333E2,8.525063E2,1.00652893E3,8.7626965E2,5.5182275E2,4.2065833E2,0E0,0E0,0E0,0E0,0E0,0E0,0E0,0E0],"parents":[2147483647,0,0,1,1,2,2,3,3,4,4,5,5,6,6],"right_children":[2,4,6,8,10,12,14,-1,-1,-1,-1,-1,-1,-1,-1],"split_conditions":[6.6541E1,-1.01E0,7.088265E1,-1.26E0,1.37228E1,7.502E0,-1.37E0,-9.8226756E-2,6.309622E-1,-1.9497855E-1,2.305285E-1,2.756481E-3,1.384257E-1,6.392939E-1,1.3592684E-1],"split_indices":[1,10,1,10,6,3,12,0,0,0,0,0,0,0,0],"split_type":[0,0,0,0,0,0,0,0,0,0,0,0,0,0,0],"sum_hessian":[2.4E3,7.03E2,1.697E3,7.8E1,6.25E2,1.63E3,6.7E1,4.8E1,3E1,5.73E2,5.2E1,1.235E3,3.95E2,3.4E1,3.3E1],"tree_param":{"num_deleted":"0","num_feature":"42","num_nodes":"15","size_leaf_vector":"1"}},{"base_weights":[1.7505435E-3,-2.8784937E-1,1.8203846E0,1.3397946E0,-6.6015685E-1,4.20249E0,7.0515716E-1,-8.936413E-2,2.9767618E-1,-1.7369695E-1,-1.1338028E-2,1.5101385E-1,9.318104E-1,-6.1540414E-2,3.5396272E-1],"categories":[],"categories_nodes":[],"categories_segments":[],"categories_sizes":[],"default_left":[0,0,0,0,0,0,0,0,0,0,0,0,0,0,0],"id":16,"left_children":[1,3,5,7,9,11,13,-1,-1,-1,-1,-1,-1,-1,-1],"loss_changes":[1.265227E3,1.2564153E3,8.732202E2,1.4141082E3,9.92883E2,1.4310135E3,8.484094E2,0E0,0E0,0E0,0E0,0E0,0E0,0E0,0E0],"parents":[2147483647,0,0,1,1,2,2,3,3,4,4,5,5,6,6],"right_children":[2,4,6,8,10,12,14,-1,-1,-1,-1,-1,-1,-1,-1],"split_conditions":[6.93784E1,-7.9E-1,-5.485E0,-5.4242E0,-3.764E0,-1.0852688E3,7.953E0,-8.936413E-2,2.9767618E-1,-1.7369695E-1,-1.1338028E-2,1.5101385E-1,9.318104E-1,-6.1540414E-2,3.5396272E-1],"split_indices":[1,12,3,0,4,8,3,0,0,0,0,0,0,0,0],"split_type":[0,0,0,0,0,0,0,0,0,0,0,0,0,0,0],"sum_hessian":[2.4E3,2.071E3,3.29E2,3.85E2,1.686E3,1.04E2,2.25E2,1.63E2,2.22E2,5.67E2,1.119E3,6.9E1,3.5E1,1.54E2,7.1E1],"tree_param":{"num_deleted":"0","num_feature":"42","num_nodes":"15","size_leaf_vector":"1"}},{"base_weights":[2.1635666E-3,-9.5653397E-1,4.7028717E-1,-1.2509297E0,2.449623E0,1.5805476E0,5.0137274E-2,-4.535288E-2,-3.2475364E-1,4.0659536E-2,1.6432114E0,1.7008212E-1,-1.2019675E0,-2.4626512E-2,2.2553885E-1],"categories":[],"categories_nodes":[],"categories_segments":[],"categories_sizes":[],"default_left":[0,0,0,0,0,0,0,0,0,0,0,0,0,0,0],"id":17,"left_children":[1,3,5,7,9,11,13,-1,-1,-1,-1,-1,-1,-1,-1],"loss_changes":[1.0779435E3,7.931181E2,7.5264966E2,1.1540188E3,1.7913317E3,7.440471E2,7.668245E2,0E0,0E0,0E0,0E0,0E0,0E0,0E0,0E0],"parents":[2147483647,0,0,1,1,2,2,3,3,4,4,5,5,6,6],"right_children":[2,4,6,8,10,12,14,-1,-1,-1,-1,-1,-1,-1,-1],"split_conditions":[6.67139E1,1.37228E1,-8.8E-1,3.3625E0,-4.077E0,7.829E-1,6.9488E1,-4.535288E-2,-3.2475364E-1,4.0659536E-2,1.6432114E0,1.7008212E-1,-1.2019675E0,-2.4626512E-2,2.2553885E-1],"split_indices":[1,6,12,6,4,5,1,0,0,0,0,0,0,0,0],"split_type":[0,0,0,0,0,0,0,0,0,0,0,0,0,0,0],"sum_hessian":[2.4E3,7.87E2,1.613E3,7.25E2,6.2E1,4.42E2,1.171E3,5.19E2,2.06E2,5.5E1,7E0,4.39E2,3E0,1.033E3,1.38E2],"tree_param":{"num_deleted":"0","num_feature":"42","num_nodes":"15","size_leaf_vector":"1"}},{"base_weights":[2.1474627E-3,6.1233893E-2,-6.6924686E0,-4.7584696E0,1.4147598E-1,-7.9955993E0,3.7581809E0,8.356873E-2,-9.598018E-1,1.3784435E-1,-1.973681E-2,-9.226743E-1,1.6127442E-1,7.712128E-2,4.8160583E-1],"categories":[],"categories_nodes":[],"categories_segments":[],"categories_sizes":[],"default_left":[0,0,0,0,0,0,0,0,0,0,0,0,0,0,0],"id":18,"left_children":[1,3,5,7,9,11,13,-1,-1,-1,-1,-1,-1,-1,-1],"loss_changes":[9.4948865E2,9.2104663E2,3.1646252E2,1.0647516E3,9.8243304E2,2.4039734E2,5.206604E0,0E0,0E0,0E0,0E0,0E0,0E0,0E0,0E0],"parents":[2147483647,0,0,1,1,2,2,3,3,4,4,5,5,6,6],"right_children":[2,4,6,8,10,12,14,-1,-1,-1,-1,-1,-1,-1,-1],"split_conditions":[7.829E-1,-2.6071914E3,5.8073E0,-2.63E-2,-8.6E-1,1.28E-2,4.31574E1,8.356873E-2,-9.598018E-1,1.3784435E-1,-1.973681E-2,-9.226743E-1,1.6127442E-1,7.712128E-2,4.8160583E-1],"split_indices":[5,8,2,16,12,15,0,0,0,0,0,0,0,0,0],"split_type":[0,0,0,0,0,0,0,0,0,0,0,0,0,0,0],"sum_hessian":[2.4E3,2.38E3,2E1,3.8E1,2.342E3,1.8E1,2E0,1.8E1,2E1,5.03E2,1.839E3,1.6E1,2E0,1E0,1E0],"tree_param":{"num_deleted":"0","num_feature":"42","num_nodes":"15","size_leaf_vector":"1"}},{"base_weights":[1.5422461E-3,1.8450566E-1,-1.9484053E0,-4.4931607E0,2.6679692E-1,-2.5290918E0,5.6076093E0,6.401167E-2,-8.6839145E-1,1.449855E-1,-1.2087164E-2,-2.0587142E-1,-1.0874091E0,-3.063733E-2,7.795092E-1],"categories":[],"categories_nodes":[],"categories_segments":[],"categories_sizes":[],"default_left":[0,0,0,0,0,0,0,0,0,0,0,0,0,0,0],"id":19,"left_children":[1,3,5,7,9,11,13,-1,-1,-1,-1,-1,-1,-1,-1],"loss_changes":[8.567855E2,8.4608466E2,9.177355E2,8.2383057E2,9.904998E2,7.299778E2,1.9718805E2,0E0,0E0,0E0,0E0,0E0,0E0,0E0,0E0],"parents":[2147483647,0,0,1,1,2,2,3,3,4,4,5,5,6,6],"right_children":[2,4,6,8,10,12,14,-1,-1,-1,-1,-1,-1,-1,-1],"split_conditions":[1.09E0,-2.6071914E3,8.484E0,-2.63E-2,-7E-1,6.039E0,-8.31E-2,6.401167E-2,-8.6839145E-1,1.449855E-1,-1.2087164E-2,-2.0587142E-1,-1.0874091E0,-3.063733E-2,7.795092E-1],"split_indices":[10,8,4,16,12,4,16,0,0,0,0,0,0,0,0],"split_type":[0,0,0,0,0,0,0,0,0,0,0,0,0,0,0],"sum_hessian":[2.4E3,2.195E3,2.05E2,3.7E1,2.158E3,1.91E2,1.4E1,1.7E1,2E1,5.32E2,1.626E3,1.82E2,9E0,4E0,1E1],"tree_param":{"num_deleted":"0","num_feature":"42","num_nodes":"15","size_leaf_vector":"1"}},{"base_weights":[8.6661405E-4,-8.504193E-1,3.8144088E-1,2.1162179E0,-1.2325071E0,1.6278146E-2,1.378197E0,1.9928498E-2,8.331286E-1,-8.129506E-1,-9.922143E-2,-8.422666E-2,9.750076E-2,3.7132642E-1,2.8261239E-2],"categories":[],"categories_nodes":[],"categories_segments":[],"categories_sizes":[],"default_left":[0,0,0,0,0,0,0,0,0,0,0,0,0,0,0],"id":20,"left_children":[1,3,5,7,9,11,13,-1,-1,-1,-1,-1,-1,-1,-1],"loss_changes":[7.7814746E2,8.435885E2,6.040419E2,1.0101654E3,1.0815243E3,1.0017387E3,1.1369783E3,0E0,0E0,0E0,0E0,0E0,0E0,0E0,0E0],"parents":[2147483647,0,0,1,1,2,2,3,3,4,4,5,5,6,6],"right_children":[2,4,6,8,10,12,14,-1,-1,-1,-1,-1,-1,-1,-1],"split_conditions":[6.661605E1,-9.9E-1,3.3E-2,-7.25E-2,-9.72E-2,5E-2,4.99E-2,1.9928498E-2,8.331286E-1,-8.129506E-1,-9.922143E-2,-8.422666E-2,9.750076E-2,3.7132642E-1,2.8261239E-2],"split_indices":[1,10,14,5,14,10,14,0,0,0,0,0,0,0,0],"split_type":[0,0,0,0,0,0,0,0,0,0,0,0,0,0,0],"sum_hessian":[2.4E3,7.41E2,1.659E3,8.4E1,6.57E2,1.215E3,4.44E2,6.5E1,1.9E1,2.1E1,6.36E2,6.41E2,5.74E2,1.41E2,3.03E2],"tree_param":{"num_deleted":"0","num_feature":"42","num_nodes":"15","size_leaf_vector":"1"}},{"base_weights":[9.2856435E-4,5.4092206E-2,-6.022098E0,-2.4933758E-1,1.1017197E0,-7.4397807E0,1.837999E0,1.9844502E-2,-2.13871E-1,2.634923E-1,-2.3197114E-2,-2.4201973E-1,-1.0404953E0,-4.4642337E-2,4.3956327E-1],"categories":[],"categories_nodes":[],"categories_segments":[],"categories_sizes":[],"default_left":[0,0,0,0,0,0,0,0,0,0,0,0,0,0,0],"id":21,"left_children":[1,3,5,7,9,11,13,-1,-1,-1,-1,-1,-1,-1,-1],"loss_changes":[7.685436E2,7.5723553E2,2.4824011E2,1.5632324E3,1.0948296E3,2.414461E2,2.5728098E1,0E0,0E0,0E0,0E0,0E0,0E0,0E0,0E0],"parents":[2147483647,0,0,1,1,2,2,3,3,4,4,5,5,6,6],"right_children":[2,4,6,8,10,12,14,-1,-1,-1,-1,-1,-1,-1,-1],"split_conditions":[7.829E-1,7.953E0,-1.5709E1,4.335E0,-6E-2,-3.63E-2,4.31574E1,1.9844502E-2,-2.13871E-1,2.634923E-1,-2.3197114E-2,-2.4201973E-1,-1.0404953E0,-4.4642337E-2,4.3956327E-1],"split_indices":[5,3,4,6,12,14,0,0,0,0,0,0,0,0,0],"split_type":[0,0,0,0,0,0,0,0,0,0,0,0,0,0,0],"sum_hessian":[2.4E3,2.38E3,2E1,1.846E3,5.34E2,1.7E1,3E0,1.493E3,3.53E2,2.48E2,2.86E2,7E0,1E1,2E0,1E0],"tree_param":{"num_deleted":"0","num_feature":"42","num_nodes":"15","size_leaf_vector":"1"}},{"base_weights":[4.7723213E-4,1.7025962E-1,-1.8089529E0,7.078384E-2,3.5355148E0,-3.2791495E-1,-4.284615E0,-4.0866295E-1,1.4411725E-2,-1.7871727E-1,5.2381706E-1,4.4405603E-1,-1.3953494E-1,-6.014458E-1,3.259699E-1],"categories":[],"categories_nodes":[],"categories_segments":[],"categories_sizes":[],"default_left":[0,0,0,0,0,0,0,0,0,0,0,0,0,0,0],"id":22,"left_children":[1,3,5,7,9,11,13,-1,-1,-1,-1,-1,-1,-1,-1],"loss_changes":[7.3775385E2,7.345252E2,7.5344305E2,6.5080286E2,5.8065704E2,6.675962E2,1.0247675E3,0E0,0E0,0E0,0E0,0E0,0E0,0E0,0E0],"parents":[2147483647,0,0,1,1,2,2,3,3,4,4,5,5,6,6],"right_children":[2,4,6,8,10,12,14,-1,-1,-1,-1,-1,-1,-1,-1],"split_conditions":[1.09E0,7.088265E1,2.36E-2,-2.6071914E3,-4.37E-2,6.60936E1,6.83088E1,-4.0866295E-1,1.4411725E-2,-1.7871727E-1,5.2381706E-1,4.4405603E-1,-1.3953494E-1,-6.014458E-1,3.259699E-1],"split_indices":[10,1,16,8,16,1,1,0,0,0,0,0,0,0,0],"split_type":[0,0,0,0,0,0,0,0,0,0,0,0,0,0,0],"sum_hessian":[2.4E3,2.195E3,2.05E2,2.133E3,6.2E1,1.29E2,7.6E1,3.6E1,2.097E3,1.5E1,4.7E1,2.3E1,1.06E2,6.2E1,1.4E1],"tree_param":{"num_deleted":"0","num_feature":"42","num_nodes":"15","size_leaf_vector":"1"}},{"base_weights":[4.2314955E-4,4.882179E-2,-5.482319E0,-1.1705307E0,2.6169258E-1,-1.0413995E0,-8.127393E0,-3.56653E-1,-1.1774345E-2,-7.1664906E-1,3.0210305E-2,-6.4757246E-1,2.738384E-1,-3.4301963E-2,-9.5024586E-1],"categories":[],"categories_nodes":[],"categories_segments":[],"categories_sizes":[],"default_left":[0,0,0,0,0,0,0,0,0,0,0,0,0,0,0],"id":23,"left_children":[1,3,5,7,9,11,13,-1,-1,-1,-1,-1,-1,-1,-1],"loss_changes":[6.368471E2,6.182386E2,2.37297E2,8.9216876E2,6.102362E2,2.0297191E2,1.3490826E2,0E0,0E0,0E0,0E0,0E0,0E0,0E0,0E0],"parents":[2147483647,0,0,1,1,2,2,3,3,4,4,5,5,6,6],"right_children":[2,4,6,8,10,12,14,-1,-1,-1,-1,-1,-1,-1,-1],"split_conditions":[7.829E-1,6.571945E1,3.4E-1,-4.239E0,-1.299E-1,-2.04883E1,2.6570408E3,-3.56653E-1,-1.1774345E-2,-7.1664906E-1,3.0210305E-2,-6.4757246E-1,2.738384E-1,-3.4301963E-2,-9.5024586E-1],"split_indices":[5,1,10,4,15,4,8,0,0,0,0,0,0,0,0],"split_type":[0,0,0,0,0,0,0,0,0,0,0,0,0,0,0],"sum_hessian":[2.4E3,2.38E3,2E1,3.53E2,2.027E3,8E0,1.2E1,1.07E2,2.46E2,1E1,2.017E3,3E0,5E0,2E0,1E1],"tree_param":{"num_deleted":"0","num_feature":"42","num_nodes":"15","size_leaf_vector":"1"}},{"base_weights":[-5.626458E-4,1.7980218E-1,-1.3353578E0,5.0595026E0,1.166291E-1,1.6405697E0,-2.3078368E0,1.1113262E0,-4.747171E-1,7.871952E-3,9.96026E-1,-2.7269408E-1,5.296654E-1,-3.6924312E-1,-8.68976E-3],"categories":[],"categories_nodes":[],"categories_segments":[],"categories_sizes":[],"default_left":[0,0,0,0,0,0,0,0,0,0,0,0,0,0,0],"id":24,"left_children":[1,3,5,7,9,11,13,-1,-1,-1,-1,-1,-1,-1,-1],"loss_changes":[5.783966E2,6.5118243E2,8.315446E2,1.6563086E3,7.7813306E2,1.1484276E3,6.635228E2,0E0,0E0,0E0,0E0,0E0,0E0,0E0,0E0],"parents":[2147483647,0,0,1,1,2,2,3,3,4,4,5,5,6,6],"right_children":[2,4,6,8,10,12,14,-1,-1,-1,-1,-1,-1,-1,-1],"split_conditions":[9.3E-1,-2.55E0,-1.17E0,-4.189E0,7.23945E1,-1.7E0,7.155E0,1.1113262E0,-4.747171E-1,7.871952E-3,9.96026E-1,-2.7269408E-1,5.296654E-1,-3.6924312E-1,-8.68976E-3],"split_indices":[10,12,12,2,1,12,3,0,0,0,0,0,0,0,0],"split_type":[0,0,0,0,0,0,0,0,0,0,0,0,0,0,0],"sum_hessian":[2.4E3,2.115E3,2.85E2,2.6E1,2.089E3,7E1,2.15E2,1.6E1,1E1,2.082E3,7E0,3.2E1,3.8E1,1.32E2,8.3E1],"tree_param":{"num_deleted":"0","num_feature":"42","num_nodes":"15","size_leaf_vector":"1"}},{"base_weights":[4.586788E-5,3.469301E-1,-6.496201E-1,-3.842536E-1,1.1721566E0,-2.0467281E0,6.001701E-1,7.972459E-3,-4.458459E-1,-1.3004173E-1,1.7349409E-1,-1.0949105E-1,-8.74334E-1,8.777658E-2,-5.002E-1],"categories":[],"categories_nodes":[],"categories_segments":[],"categories_sizes":[],"default_left":[0,0,0,0,0,0,0,0,0,0,0,0,0,0,0],"id":25,"left_children":[1,3,5,7,9,11,13,-1,-1,-1,-1,-1,-1,-1,-1],"loss_changes":[5.4128174E2,9.454414E2,1.4611057E3,1.5716677E3,1.0264624E3,2.5071538E3,6.9134937E2,0E0,0E0,0E0,0E0,0E0,0E0,0E0,0E0],"parents":[2147483647,0,0,1,1,2,2,3,3,4,4,5,5,6,6],"right_children":[2,4,6,8,10,12,14,-1,-1,-1,-1,-1,-1,-1,-1],"split_conditions":[3.306E0,-1.169E-1,6.596E0,-1.607E-1,-5.4009E0,6.78E-2,7.829E-1,7.972459E-3,-4.458459E-1,-1.3004173E-1,1.7349409E-1,-1.0949105E-1,-8.74334E-1,8.777658E-2,-5.002E-1],"split_indices":[6,5,3,5,6,16,5,0,0,0,0,0,0,0,0],"split_type":[0,0,0,0,0,0,0,0,0,0,0,0,0,0,0],"sum_hessian":[2.4E3,1.565E3,8.35E2,8.3E2,7.35E2,3.94E2,4.41E2,7.46E2,8.4E1,1.36E2,5.99E2,3.46E2,4.8E1,4.21E2,2E1],"tree_param":{"num_deleted":"0","num_feature":"42","num_nodes":"15","size_leaf_vector":"1"}},{"base_weights":[-6.296039E-4,5.2489555E-1,-4.1790563E-1,1.2274095E1,4.5767426E-1,-3.256923E-1,-6.8019004E0,2.7720663E-1,1.6307093E0,2.4914315E-1,1.2666029E-2,-3.878935E-2,9.919068E-1,-7.5343406E-1,3.1410095E-1],"categories":[],"categories_nodes":[],"categories_segments":[],"categories_sizes":[],"default_left":[0,0,0,0,0,0,0,0,0,0,0,0,0,0,0],"id":26,"left_children":[1,3,5,7,9,11,13,-1,-1,-1,-1,-1,-1,-1,-1],"loss_changes":[5.267216E2,8.3266235E2,7.8532697E2,1.8281775E2,7.116704E2,8.4468384E2,1.6247394E2,0E0,0E0,0E0,0E0,0E0,0E0,0E0,0E0],"parents":[2147483647,0,0,1,1,2,2,3,3,4,4,5,5,6,6],"right_children":[2,4,6,8,10,12,14,-1,-1,-1,-1,-1,-1,-1,-1],"split_conditions":[-1.7E-1,-4.9035E0,3.97836E1,-4.9406E0,-4.271E-1,3.63813E1,6.16E-2,2.7720663E-1,1.6307093E0,2.4914315E-1,1.2666029E-2,-3.878935E-2,9.919068E-1,-7.5343406E-1,3.1410095E-1],"split_indices":[11,2,0,6,5,0,15,0,0,0,0,0,0,0,0],"split_type":[0,0,0,0,0,0,0,0,0,0,0,0,0,0,0],"sum_hessian":[2.4E3,1.062E3,1.338E3,5E0,1.057E3,1.32E3,1.8E1,2E0,3E0,1.47E2,9.1E2,1.313E3,7E0,1.7E1,1E0],"tree_param":{"num_deleted":"0","num_feature":"42","num_nodes":"15","size_leaf_vector":"1"}},{"base_weights":[4.881249E-4,-3.621926E0,6.0316168E-2,9.839593E-1,-7.621445E0,1.4270252E0,-1.1736317E-1,6.2544775E-1,-4.3749547E-1,-1.2328519E0,-2.2124223E-1,3.1565413E-1,-1.7785927E-2,-1.0804975E-1,2.5362397E-2],"categories":[],"categories_nodes":[],"categories_segments":[],"categories_sizes":[],"default_left":[0,0,0,0,0,0,0,0,0,0,0,0,0,0,0],"id":27,"left_children":[1,3,5,7,9,11,13,-1,-1,-1,-1,-1,-1,-1,-1],"loss_changes":[5.2021173E2,7.265947E2,5.7411975E2,5.6419183E2,5.0594397E2,7.558425E2,7.4785016E2,0E0,0E0,0E0,0E0,0E0,0E0,0E0,0E0],"parents":[2147483647,0,0,1,1,2,2,3,3,4,4,5,5,6,6],"right_children":[2,4,6,8,10,12,14,-1,-1,-1,-1,-1,-1,-1,-1],"split_conditions":[-2.6071914E3,-2.63E-2,-4.271E-1,-7.4E-1,-8.8E-1,-1.7E-1,-1.169E-1,6.2544775E-1,-4.3749547E-1,-1.2328519E0,-2.2124223E-1,3.1565413E-1,-1.7785927E-2,-1.0804975E-1,2.5362397E-2],"split_indices":[8,16,5,10,10,11,5,0,0,0,0,0,0,0,0],"split_type":[0,0,0,0,0,0,0,0,0,0,0,0,0,0,0],"sum_hessian":[2.4E3,3.8E1,2.362E3,1.8E1,2E1,2.71E2,2.091E3,9E0,9E0,1E1,1E1,1.3E2,1.41E2,5.81E2,1.51E3],"tree_param":{"num_deleted":"0","num_feature":"42","num_nodes":"15","size_leaf_vector":"1"}},{"base_weights":[-0E0,-2.1638256E-1,9.112487E-1,1.0483094E1,-2.6613885E-1,1.5354594E0,-2.125257E0,1.505688E0,5.670055E-1,-3.351908E-2,4.617128E-1,1.0037606E-1,6.790528E-1,5.748022E-1,-3.484876E-1],"categories":[],"categories_nodes":[],"categories_segments":[],"categories_sizes":[],"default_left":[0,0,0,0,0,0,0,0,0,0,0,0,0,0,0],"id":28,"left_children":[1,3,5,7,9,11,13,-1,-1,-1,-1,-1,-1,-1,-1],"loss_changes":[4.7368283E2,1.0350911E3,8.7699255E2,1.1067828E2,6.529252E2,1.06255E3,8.654729E2,0E0,0E0,0E0,0E0,0E0,0E0,0E0,0E0],"parents":[2147483647,0,0,1,1,2,2,3,3,4,4,5,5,6,6],"right_children":[2,4,6,8,10,12,14,-1,-1,-1,-1,-1,-1,-1,-1],"split_conditions":[6.898415E1,-2.69E0,6.8E-1,1.374E-1,8.0359E0,3.337E-1,6.908075E1,1.505688E0,5.670055E-1,-3.351908E-2,4.617128E-1,1.0037606E-1,6.790528E-1,5.748022E-1,-3.484876E-1],"split_indices":[1,12,10,6,2,5,1,0,0,0,0,0,0,0,0],"split_type":[0,0,0,0,0,0,0,0,0,0,0,0,0,0,0],"sum_hessian":[2.4E3,1.94E3,4.6E2,8E0,1.932E3,3.82E2,7.8E1,3E0,5E0,1.906E3,2.6E1,3.48E2,3.4E1,1.1E1,6.7E1],"tree_param":{"num_deleted":"0","num_feature":"42","num_nodes":"15","size_leaf_vector":"1"}},{"base_weights":[1.4601498E-3,4.7287235E-1,-4.2715433E-1,2.9866928E-1,5.5326076E0,-2.930265E-1,-5.553645E0,-1.7139958E-2,1.7013976E-1,3.5016152E-1,1.4012487E0,-6.945972E-1,-1.6571466E-2,-2.4606562E-1,-1.3173434E0],"categories":[],"categories_nodes":[],"categories_segments":[],"categories_sizes":[],"default_left":[0,0,0,0,0,0,0,0,0,0,0,0,0,0,0],"id":29,"left_children":[1,3,5,7,9,11,13,-1,-1,-1,-1,-1,-1,-1,-1],"loss_changes":[4.8533844E2,1.0061106E3,8.6279535E2,7.303771E2,6.0364E2,1.0374053E3,7.201948E2,0E0,0E0,0E0,0E0,0E0,0E0,0E0,0E0],"parents":[2147483647,0,0,1,1,2,2,3,3,4,4,5,5,6,6],"right_children":[2,4,6,8,10,12,14,-1,-1,-1,-1,-1,-1,-1,-1],"split_conditions":[6E-4,-1.065E-1,8.6E-1,6.228E0,5.7E-1,6.95E-2,6.741055E1,-1.7139958E-2,1.7013976E-1,3.5016152E-1,1.4012487E0,-6.945972E-1,-1.6571466E-2,-2.4606562E-1,-1.3173434E0],"split_indices":[2,2,9,3,9,2,1,0,0,0,0,0,0,0,0],"split_type":[0,0,0,0,0,0,0,0,0,0,0,0,0,0,0],"sum_hessian":[2.4E3,1.143E3,1.257E3,1.106E3,3.7E1,1.226E3,3.1E1,8.29E2,2.77E2,3.1E1,6E0,2.2E1,1.204E3,2.3E1,8E0],"tree_param":{"num_deleted":"0","num_feature":"42","num_nodes":"15","size_leaf_vector":"1"}},{"base_weights":[1.1516948E-3,3.2733214E-1,-6.0973316E-1,-4.5084393E-1,9.618728E-1,-1.7963887E0,4.5189282E-1,-7.803544E-1,-2.7929962E-2,1.4853579E-1,-1.01824954E-1,-9.400664E-2,-7.821847E-1,1.0823372E-3,3.370166E-1],"categories":[],"categories_nodes":[],"categories_segments":[],"categories_sizes":[],"default_left":[0,0,0,0,0,0,0,0,0,0,0,0,0,0,0],"id":30,"left_children":[1,3,5,7,9,11,13,-1,-1,-1,-1,-1,-1,-1,-1],"loss_changes":[4.785915E2,7.7375116E2,1.0541259E3,8.849772E2,8.961142E2,2.0298661E3,5.6855066E2,0E0,0E0,0E0,0E0,0E0,0E0,0E0,0E0],"parents":[2147483647,0,0,1,1,2,2,3,3,4,4,5,5,6,6],"right_children":[2,4,6,8,10,12,14,-1,-1,-1,-1,-1,-1,-1,-1],"split_conditions":[3.306E0,-4.688E0,6.596E0,6.41062E1,6.7E-1,6.78E-2,7.57E-2,-7.803544E-1,-2.7929962E-2,1.4853579E-1,-1.01824954E-1,-9.400664E-2,-7.821847E-1,1.0823372E-3,3.370166E-1],"split_indices":[6,6,3,1,10,16,15,0,0,0,0,0,0,0,0],"split_type":[0,0,0,0,0,0,0,0,0,0,0,0,0,0,0],"sum_hessian":[2.4E3,1.565E3,8.35E2,7.03E2,8.62E2,3.94E2,4.41E2,1.5E1,6.88E2,6.82E2,1.8E2,3.46E2,4.8E1,3.84E2,5.7E1],"tree_param":{"num_deleted":"0","num_feature":"42","num_nodes":"15","size_leaf_vector":"1"}},{"base_weights":[4.8475666E-4,-1.4415039E0,1.2368194E-1,-4.9358363E0,-6.972078E-1,-7.006953E-1,3.5797495E-1,-1.0749949E0,-2.3034632E-1,-4.0912613E-1,6.180164E-2,-2.1692573E-1,3.3652265E-2,3.483892E-3,1.2616049E-1],"categories":[],"categories_nodes":[],"categories_segments":[],"categories_sizes":[],"default_left":[0,0,0,0,0,0,0,0,0,0,0,0,0,0,0],"id":31,"left_children":[1,3,5,7,9,11,13,-1,-1,-1,-1,-1,-1,-1,-1],"loss_changes":[4.265816E2,4.8755002E2,4.276483E2,4.7899475E2,7.0371454E2,7.4729047E2,5.0322638E2,0E0,0E0,0E0,0E0,0E0,0E0,0E0,0E0],"parents":[2147483647,0,0,1,1,2,2,3,3,4,4,5,5,6,6],"right_children":[2,4,6,8,10,12,14,-1,-1,-1,-1,-1,-1,-1,-1],"split_conditions":[6.51561E1,-4.67E-2,-4.08E-2,-4.239E0,-4.9406E0,-2.932E0,3.3E-2,-1.0749949E0,-2.3034632E-1,-4.0912613E-1,6.180164E-2,-2.1692573E-1,3.3652265E-2,3.483892E-3,1.2616049E-1],"split_indices":[1,14,15,4,6,4,14,0,0,0,0,0,0,0,0],"split_type":[0,0,0,0,0,0,0,0,0,0,0,0,0,0,0],"sum_hessian":[2.4E3,1.88E2,2.212E3,3.2E1,1.56E2,4.89E2,1.723E3,9E0,2.3E1,4.3E1,1.13E2,2.02E2,2.87E2,1.27E3,4.53E2],"tree_param":{"num_deleted":"0","num_feature":"42","num_nodes":"15","size_leaf_vector":"1"}},{"base_weights":[-1.9412155E-4,4.3672964E-1,-3.9760318E-1,2.7860177E-1,5.02912E0,-2.7703914E-1,-5.0049305E0,-1.3929133E-2,1.5256259E-1,4.0218297E-2,8.024854E-1,-6.257939E-1,-1.62568E-2,-2.1356502E-1,-1.2089131E0],"categories":[],"categories_nodes":[],"categories_segments":[],"categories_sizes":[],"default_left":[0,0,0,0,0,0,0,0,0,0,0,0,0,0,0],"id":32,"left_children":[1,3,5,7,9,11,13,-1,-1,-1,-1,-1,-1,-1,-1],"loss_changes":[4.1707327E2,8.2882367E2,6.9687665E2,5.7723395E2,5.226505E2,8.383942E2,6.232092E2,0E0,0E0,0E0,0E0,0E0,0E0,0E0,0E0],"parents":[2147483647,0,0,1,1,2,2,3,3,4,4,5,5,6,6],"right_children":[2,4,6,8,10,12,14,-1,-1,-1,-1,-1,-1,-1,-1],"split_conditions":[6E-4,-1.065E-1,8.6E-1,6.228E0,6.780225E1,6.95E-2,6.741055E1,-1.3929133E-2,1.5256259E-1,4.0218297E-2,8.024854E-1,-6.257939E-1,-1.62568E-2,-2.1356502E-1,-1.2089131E0],"split_indices":[2,2,9,3,1,2,1,0,0,0,0,0,0,0,0],"split_type":[0,0,0,0,0,0,0,0,0,0,0,0,0,0,0],"sum_hessian":[2.4E3,1.143E3,1.257E3,1.106E3,3.7E1,1.226E3,3.1E1,8.29E2,2.77E2,1.5E1,2.2E1,2.2E1,1.204E3,2.3E1,8E0],"tree_param":{"num_deleted":"0","num_feature":"42","num_nodes":"15","size_leaf_vector":"1"}},{"base_weights":[-6.294641E-4,-3.9591473E-2,4.412188E0,-2.4353862E0,3.826904E-2,9.628266E0,-2.938924E-1,1.4323738E-1,-5.0479454E-1,1.2123897E-1,-1.2976422E-2,1.024332E0,1.9963868E-1,1.1812122E0,-2.4773593E-1],"categories":[],"categories_nodes":[],"categories_segments":[],"categories_sizes":[],"default_left":[0,0,0,0,0,0,0,0,0,0,0,0,0,0,0],"id":33,"left_children":[1,3,5,7,9,11,13,-1,-1,-1,-1,-1,-1,-1,-1],"loss_changes":[4.1254672E2,4.4447943E2,5.1925604E2,7.654485E2,4.5541666E2,2.5266724E1,3.4552637E2,0E0,0E0,0E0,0E0,0E0,0E0,0E0,0E0],"parents":[2147483647,0,0,1,1,2,2,3,3,4,4,5,5,6,6],"right_children":[2,4,6,8,10,12,14,-1,-1,-1,-1,-1,-1,-1,-1],"split_conditions":[7.18549E1,-1.76192E1,-3.06E0,4.1E-1,-9.178E0,5.48E-2,-3.26281E1,1.4323738E-1,-5.0479454E-1,1.2123897E-1,-1.2976422E-2,1.024332E0,1.9963868E-1,1.1812122E0,-2.4773593E-1],"split_indices":[1,4,4,10,4,16,0,0,0,0,0,0,0,0,0],"split_type":[0,0,0,0,0,0,0,0,0,0,0,0,0,0,0],"sum_hessian":[2.4E3,2.38E3,2E1,7.4E1,2.306E3,9E0,1.1E1,3E1,4.4E1,2.88E2,2.018E3,8E0,1E0,1E0,1E1],"tree_param":{"num_deleted":"0","num_feature":"42","num_nodes":"15","size_leaf_vector":"1"}},{"base_weights":[1.4927938E-4,2.966349E-1,-5.551099E-1,-2.1993148E-1,1.0959432E0,-1.5861981E0,3.6736742E-1,4.5814313E-2,-1.21132754E-1,4.1126853E-1,6.6915E-2,-8.184715E-2,-6.988544E-1,7.649345E-1,1.9811306E-2],"categories":[],"categories_nodes":[],"categories_segments":[],"categories_sizes":[],"default_left":[0,0,0,0,0,0,0,0,0,0,0,0,0,0,0],"id":34,"left_children":[1,3,5,7,9,11,13,-1,-1,-1,-1,-1,-1,-1,-1],"loss_changes":[3.9540674E2,6.4692346E2,7.9587054E2,6.406033E2,7.8859766E2,1.6317717E3,5.424676E2,0E0,0E0,0E0,0E0,0E0,0E0,0E0,0E0],"parents":[2147483647,0,0,1,1,2,2,3,3,4,4,5,5,6,6],"right_children":[2,4,6,8,10,12,14,-1,-1,-1,-1,-1,-1,-1,-1],"split_conditions":[3.306E0,-2.8752E0,6.596E0,-2.651E-1,-3.6803E0,6.78E-2,6.11E-2,4.5814313E-2,-1.21132754E-1,4.1126853E-1,6.6915E-2,-8.184715E-2,-6.988544E-1,7.649345E-1,1.9811306E-2],"split_indices":[6,0,3,5,2,16,5,0,0,0,0,0,0,0,0],"split_type":[0,0,0,0,0,0,0,0,0,0,0,0,0,0,0],"sum_hessian":[2.4E3,1.565E3,8.35E2,9.51E2,6.14E2,3.94E2,4.41E2,5.65E2,3.86E2,7.5E1,5.39E2,3.46E2,4.8E1,9E0,4.32E2],"tree_param":{"num_deleted":"0","num_feature":"42","num_nodes":"15","size_leaf_vector":"1"}},{"base_weights":[3.076632E-4,1.26439E-1,-1.3437929E0,2.6715877E0,4.257118E-2,-1.8471978E0,5.182709E0,6.9537723E-1,1.3584608E-2,-3.7013438E-2,6.5113865E-2,-1.4268847E-1,-9.344209E-1,7.9249275E-1,9.023272E-2],"categories":[],"categories_nodes":[],"categories_segments":[],"categories_sizes":[],"default_left":[0,0,0,0,0,0,0,0,0,0,0,0,0,0,0],"id":35,"left_children":[1,3,5,7,9,11,13,-1,-1,-1,-1,-1,-1,-1,-1],"loss_changes":[4.070974E2,4.683644E2,6.8604724E2,7.584424E2,5.344847E2,5.905994E2,1.6803253E2,0E0,0E0,0E0,0E0,0E0,0E0,0E0,0E0],"parents":[2147483647,0,0,1,1,2,2,3,3,4,4,5,5,6,6],"right_children":[2,4,6,8,10,12,14,-1,-1,-1,-1,-1,-1,-1,-1],"split_conditions":[1.09E0,-5.5128E0,8.484E0,1.6E-1,1.23E-2,6.039E0,2.59E-2,6.9537723E-1,1.3584608E-2,-3.7013438E-2,6.5113865E-2,-1.4268847E-1,-9.344209E-1,7.9249275E-1,9.023272E-2],"split_indices":[10,2,4,10,14,4,15,0,0,0,0,0,0,0,0],"split_type":[0,0,0,0,0,0,0,0,0,0,0,0,0,0,0],"sum_hessian":[2.4E3,2.195E3,2.05E2,6.9E1,2.126E3,1.91E2,1.4E1,2.5E1,4.4E1,1.267E3,8.59E2,1.82E2,9E0,8E0,6E0],"tree_param":{"num_deleted":"0","num_feature":"42","num_nodes":"15","size_leaf_vector":"1"}},{"base_weights":[5.066058E-4,-3.041804E0,5.0760355E-2,-4.2421846E0,8.4970725E-1,1.2510159E0,-1.0527227E-1,-1.8898438E-1,-7.796589E-1,-5.550586E-1,1.5593232E-1,-1.1215841E-1,1.31152E-2],"categories":[],"categories_nodes":[],"categories_segments":[],"categories_sizes":[],"default_left":[0,0,0,0,0,0,0,0,0,0,0,0,0],"id":36,"left_children":[1,3,5,7,-1,9,11,-1,-1,-1,-1,-1,-1],"loss_changes":[3.6693826E2,5.758113E2,4.4278662E2,2.8529913E2,0E0,5.786355E2,5.029135E2,0E0,0E0,0E0,0E0,0E0,0E0],"parents":[2147483647,0,0,1,1,2,2,3,3,5,5,6,6],"right_children":[2,4,6,8,-1,10,12,-1,-1,-1,-1,-1,-1],"split_conditions":[-2.6071914E3,3.23E-2,-4.271E-1,1.95E-2,8.4970725E-1,-2.4229E1,-5.4009E0,-1.8898438E-1,-7.796589E-1,-5.550586E-1,1.5593232E-1,-1.1215841E-1,1.31152E-2],"split_indices":[8,15,5,16,0,3,6,0,0,0,0,0,0],"split_type":[0,0,0,0,0,0,0,0,0,0,0,0,0],"sum_hessian":[2.4E3,3.8E1,2.362E3,3.5E1,3E0,2.71E2,2.091E3,2.2E1,1.3E1,1.1E1,2.6E2,3.94E2,1.697E3],"tree_param":{"num_deleted":"0","num_feature":"42","num_nodes":"13","size_leaf_vector":"1"}},{"base_weights":[1.8311436E-4,2.7904848E-2,-5.512744E0,-3.8725033E-2,2.451652E0,1.7358533E0,-9.366525E0,5.8929715E-3,-4.1522098E-1,-4.2338416E-2,6.4109015E-1,-1.5762451E-1,4.5026675E-1,-4.7338328E-1,-1.2790759E0],"categories":[],"categories_nodes":[],"categories_segments":[],"categories_sizes":[],"default_left":[0,0,0,0,0,0,0,0,0,0,0,0,0,0,0],"id":37,"left_children":[1,3,5,7,9,11,13,-1,-1,-1,-1,-1,-1,-1,-1],"loss_changes":[3.6654514E2,3.8630685E2,3.52236E2,9.3541296E2,7.3182404E2,5.3209747E1,6.460559E1,0E0,0E0,0E0,0E0,0E0,0E0,0E0,0E0],"parents":[2147483647,0,0,1,1,2,2,3,3,4,4,5,5,6,6],"right_children":[2,4,6,8,10,12,14,-1,-1,-1,-1,-1,-1,-1,-1],"split_conditions":[3.0735884E3,1.99041E1,-2.15E0,1.73202E1,6.757095E1,1.83988E1,-2.23E-2,5.8929715E-3,-4.1522098E-1,-4.2338416E-2,6.4109015E-1,-1.5762451E-1,4.5026675E-1,-4.7338328E-1,-1.2790759E0],"split_indices":[8,6,9,6,1,6,14,0,0,0,0,0,0,0,0],"split_type":[0,0,0,0,0,0,0,0,0,0,0,0,0,0,0],"sum_hessian":[2.4E3,2.389E3,1.1E1,2.326E3,6.3E1,4E0,7E0,2.273E3,5.3E1,3.7E1,2.6E1,2E0,2E0,4E0,3E0],"tree_param":{"num_deleted":"0","num_feature":"42","num_nodes":"15","size_leaf_vector":"1"}},{"base_weights":[-2.906186E-4,-8.979028E-2,1.6431006E0,5.949679E0,-1.2712485E-1,-4.5424047E0,2.3472834E0,1.358478E0,1.8742608E-2,-7.199686E-2,2.22776E-2,6.960981E-2,-9.1462785E-1,4.40307E-1,7.35083E-2],"categories":[],"categories_nodes":[],"categories_segments":[],"categories_sizes":[],"default_left":[0,0,0,0,0,0,0,0,0,0,0,0,0,0,0],"id":38,"left_children":[1,3,5,7,9,11,13,-1,-1,-1,-1,-1,-1,-1,-1],"loss_changes":[3.5313837E2,5.138197E2,5.5055286E2,6.1201184E2,4.700538E2,3.20738E2,3.674557E2,0E0,0E0,0E0,0E0,0E0,0E0,0E0,0E0],"parents":[2147483647,0,0,1,1,2,2,3,3,4,4,5,5,6,6],"right_children":[2,4,6,8,10,12,14,-1,-1,-1,-1,-1,-1,-1,-1],"split_conditions":[7.036655E1,-2.69E0,-8.51E-2,8.07E-1,-2.932E0,-1.204E-1,0E0,1.358478E0,1.8742608E-2,-7.199686E-2,2.22776E-2,6.960981E-2,-9.1462785E-1,4.40307E-1,7.35083E-2],"split_indices":[1,12,16,6,4,16,7,0,0,0,0,0,0,0,0],"split_type":[0,0,0,0,0,0,0,0,0,0,0,0,0,0,0],"sum_hessian":[2.4E3,2.277E3,1.23E2,1.3E1,2.264E3,1.2E1,1.11E2,5E0,8E0,8.4E2,1.424E3,6E0,6E0,4.8E1,6.3E1],"tree_param":{"num_deleted":"0","num_feature":"42","num_nodes":"15","size_leaf_vector":"1"}},{"base_weights":[8.8511144E-5,-1.266364E0,1.0829431E-1,5.3620033E0,-1.6281269E0,2.2973499E-1,-1.2158455E0,1.1611185E0,1.0107561E-1,-4.8592266E-2,-4.0205923E-1,1.511033E-1,2.1013848E-3,-1.7235641E-1,4.6803838E-1],"categories":[],"categories_nodes":[],"categories_segments":[],"categories_sizes":[],"default_left":[0,0,0,0,0,0,0,0,0,0,0,0,0,0,0],"id":39,"left_children":[1,3,5,7,9,11,13,-1,-1,-1,-1,-1,-1,-1,-1],"loss_changes":[3.2904837E2,4.6155914E2,3.5604092E2,2.58919E2,4.8947876E2,5.421712E2,5.6458545E2,0E0,0E0,0E0,0E0,0E0,0E0,0E0,0E0],"parents":[2147483647,0,0,1,1,2,2,3,3,4,4,5,5,6,6],"right_children":[2,4,6,8,10,12,14,-1,-1,-1,-1,-1,-1,-1,-1],"split_conditions":[6.51561E1,-8.5E-2,1.09E0,1.05E0,4E-1,-9.178E0,8.484E0,1.1611185E0,1.0107561E-1,-4.8592266E-2,-4.0205923E-1,1.511033E-1,2.1013848E-3,-1.7235641E-1,4.6803838E-1],"split_indices":[1,15,10,11,9,4,4,0,0,0,0,0,0,0,0],"split_type":[0,0,0,0,0,0,0,0,0,0,0,0,0,0,0],"sum_hessian":[2.4E3,1.88E2,2.212E3,9E0,1.79E2,2.027E3,1.85E2,3E0,6E0,1.22E2,5.7E1,2.83E2,1.744E3,1.71E2,1.4E1],"tree_param":{"num_deleted":"0","num_feature":"42","num_nodes":"15","size_leaf_vector":"1"}},{"base_weights":[6.071447E-4,3.572849E-2,-3.9767518E0,-1.6451355E-2,3.1721811E0,-1.5670922E0,-7.004399E0,1.1875735E-3,-6.031965E-1,5.3581136E-1,-2.8700206E-1,-4.444417E-1,2.513856E-1,-8.080994E-2,-9.9511987E-1],"categories":[],"categories_nodes":[],"categories_segments":[],"categories_sizes":[],"default_left":[0,0,0,0,0,0,0,0,0,0,0,0,0,0,0],"id":40,"left_children":[1,3,5,7,9,11,13,-1,-1,-1,-1,-1,-1,-1,-1],"loss_changes":[3.3514413E2,3.9004132E2,1.4137387E2,3.999255E2,5.307326E2,1.6401443E2,1.5521582E2,0E0,0E0,0E0,0E0,0E0,0E0,0E0,0E0],"parents":[2147483647,0,0,1,1,2,2,3,3,4,4,5,5,6,6],"right_children":[2,4,6,8,10,12,14,-1,-1,-1,-1,-1,-1,-1,-1],"split_conditions":[7.829E-1,3.63813E1,5.8E-1,2.2446E1,2.9207266E3,2.62603E1,1.16323E1,1.1875735E-3,-6.031965E-1,5.3581136E-1,-2.8700206E-1,-4.444417E-1,2.513856E-1,-8.080994E-2,-9.9511987E-1],"split_indices":[5,0,10,3,8,3,6,0,0,0,0,0,0,0,0],"split_type":[0,0,0,0,0,0,0,0,0,0,0,0,0,0,0],"sum_hessian":[2.4E3,2.38E3,2E1,2.342E3,3.8E1,1.2E1,8E0,2.332E3,1E1,2.8E1,1E1,7E0,5E0,3E0,5E0],"tree_param":{"num_deleted":"0","num_feature":"42","num_nodes":"15","size_leaf_vector":"1"}},{"base_weights":[-6.0789847E-5,3.9336535E-1,-3.579141E-1,4.722367E0,2.5642082E-1,1.4927725E-1,-1.256661E0,-5.215199E-1,6.176092E-1,5.6044694E-2,-1.4042589E-1,4.0508166E-1,-1.25398515E-2,-3.4872696E-1,7.7935974E-3],"categories":[],"categories_nodes":[],"categories_segments":[],"categories_sizes":[],"default_left":[0,0,0,0,0,0,0,0,0,0,0,0,0,0,0],"id":41,"left_children":[1,3,5,7,9,11,13,-1,-1,-1,-1,-1,-1,-1,-1],"loss_changes":[3.3817126E2,6.7649225E2,5.737408E2,5.379326E2,5.6113043E2,8.635855E2,1.3521543E3,0E0,0E0,0E0,0E0,0E0,0E0,0E0,0E0],"parents":[2147483647,0,0,1,1,2,2,3,3,4,4,5,5,6,6],"right_children":[2,4,6,8,10,12,14,-1,-1,-1,-1,-1,-1,-1,-1],"split_conditions":[6E-4,-1.23E0,1.144E-1,-3.0492E0,4.255E-2,-7.27E-2,-2.02E-2,-5.215199E-1,6.176092E-1,5.6044694E-2,-1.4042589E-1,4.0508166E-1,-1.25398515E-2,-3.4872696E-1,7.7935974E-3],"split_indices":[2,11,5,2,17,15,15,0,0,0,0,0,0,0,0],"split_type":[0,0,0,0,0,0,0,0,0,0,0,0,0,0,0],"sum_hessian":[2.4E3,1.143E3,1.257E3,3.4E1,1.109E3,8.04E2,4.53E2,4E0,3E1,9.38E2,1.71E2,5.2E1,7.52E2,1.69E2,2.84E2],"tree_param":{"num_deleted":"0","num_feature":"42","num_nodes":"15","size_leaf_vector":"1"}},{"base_weights":[-1.7752562E-5,-2.7939653E0,4.6052486E-2,1.0168958E0,-6.1136036E0,-5.0704656E0,7.436754E-2,5.610453E-1,-3.668351E-1,-1.0262556E0,-1.399778E-1,3.394876E-1,-7.959556E-1,2.58425E-1,-1.7432641E-3],"categories":[],"categories_nodes":[],"categories_segments":[],"categories_sizes":[],"default_left":[0,0,0,0,0,0,0,0,0,0,0,0,0,0,0],"id":42,"left_children":[1,3,5,7,9,11,13,-1,-1,-1,-1,-1,-1,-1,-1],"loss_changes":[3.09455E2,5.0010312E2,3.4221582E2,4.2969232E2,3.9517474E2,3.4542093E2,5.419901E2,0E0,0E0,0E0,0E0,0E0,0E0,0E0,0E0],"parents":[2147483647,0,0,1,1,2,2,3,3,4,4,5,5,6,6],"right_children":[2,4,6,8,10,12,14,-1,-1,-1,-1,-1,-1,-1,-1],"split_conditions":[-2.6071914E3,-2.63E-2,-2.4229E1,-7.4E-1,-8.8E-1,-2.5147922E3,-2.0122358E3,5.610453E-1,-3.668351E-1,-1.0262556E0,-1.399778E-1,3.394876E-1,-7.959556E-1,2.58425E-1,-1.7432641E-3],"split_indices":[8,16,3,10,10,8,8,0,0,0,0,0,0,0,0],"split_type":[0,0,0,0,0,0,0,0,0,0,0,0,0,0,0],"sum_hessian":[2.4E3,3.8E1,2.362E3,1.8E1,2E1,1.2E1,2.35E3,9E0,9E0,1E1,1E1,3E0,9E0,8.2E1,2.268E3],"tree_param":{"num_deleted":"0","num_feature":"42","num_nodes":"15","size_leaf_vector":"1"}},{"base_weights":[-5.1167724E-4,-6.0456246E-2,2.0555344E0,3.5628565E-2,-3.901171E0,-1.0537368E0,5.8038173E0,-4.281621E-3,3.0947277E-1,-1.157218E0,-2.0206971E-1,-2.9807603E-1,6.532697E-1,9.642318E-1,-1.0690007E-1],"categories":[],"categories_nodes":[],"categories_segments":[],"categories_sizes":[],"default_left":[0,0,0,0,0,0,0,0,0,0,0,0,0,0,0],"id":43,"left_children":[1,3,5,7,9,11,13,-1,-1,-1,-1,-1,-1,-1,-1],"loss_changes":[2.9584512E2,8.618517E2,7.990919E2,5.4709015E2,7.974894E2,5.746482E2,8.289856E2,0E0,0E0,0E0,0E0,0E0,0E0,0E0,0E0],"parents":[2147483647,0,0,1,1,2,2,3,3,4,4,5,5,6,6],"right_children":[2,4,6,8,10,12,14,-1,-1,-1,-1,-1,-1,-1,-1],"split_conditions":[1.99041E1,1.73202E1,1.6E-1,1.52985E1,4.086E0,2.40478E1,5E-1,-4.281621E-3,3.0947277E-1,-1.157218E0,-2.0206971E-1,-2.9807603E-1,6.532697E-1,9.642318E-1,-1.0690007E-1],"split_indices":[6,6,10,6,3,6,11,0,0,0,0,0,0,0,0],"split_type":[0,0,0,0,0,0,0,0,0,0,0,0,0,0,0],"sum_hessian":[2.4E3,2.333E3,6.7E1,2.277E3,5.6E1,3.7E1,3E1,2.221E3,5.6E1,1E1,4.6E1,3E1,7E0,1.9E1,1.1E1],"tree_param":{"num_deleted":"0","num_feature":"42","num_nodes":"15","size_leaf_vector":"1"}},{"base_weights":[-4.0761748E-4,-4.692418E0,2.7058277E-2,-1.6096585E0,-1.1971903E0,2.130672E0,-5.8117308E-2,4.8733136E-1,-3.6029094E-1,3.261072E-1,-3.5069442E-1,-1.02522686E-1,1.639641E-2],"categories":[],"categories_nodes":[],"categories_segments":[],"categories_sizes":[],"default_left":[0,0,0,0,0,0,0,0,0,0,0,0,0],"id":44,"left_children":[1,3,5,7,-1,9,11,-1,-1,-1,-1,-1,-1],"loss_changes":[3.1001102E2,2.9354373E2,4.2820462E2,1.5957513E2,0E0,6.040785E2,4.933823E2,0E0,0E0,0E0,0E0,0E0,0E0],"parents":[2147483647,0,0,1,1,2,2,3,3,5,5,6,6],"right_children":[2,4,6,8,-1,10,12,-1,-1,-1,-1,-1,-1],"split_conditions":[-1.299E-1,-2.026E0,-8.38E-2,1.735E-1,-1.1971903E0,4.845E-1,-4.08E-2,4.8733136E-1,-3.6029094E-1,3.261072E-1,-3.5069442E-1,-1.02522686E-1,1.639641E-2],"split_indices":[15,4,15,5,0,5,15,0,0,0,0,0,0],"split_type":[0,0,0,0,0,0,0,0,0,0,0,0,0],"sum_hessian":[2.4E3,1.3E1,2.387E3,1E1,3E0,9.2E1,2.295E3,2E0,8E0,7.7E1,1.5E1,4.28E2,1.867E3],"tree_param":{"num_deleted":"0","num_feature":"42","num_nodes":"13","size_leaf_vector":"1"}},{"base_weights":[-8.5462816E-4,3.2081675E-2,-3.7399251E0,-3.339278E-2,2.2611377E0,-1.5097215E0,-6.5346723E0,4.605988E-3,-4.0428185E-1,-8.8184685E-2,5.827678E-1,-3.9520195E-1,1.9816296E-1,4.823527E-2,-8.622729E-1],"categories":[],"categories_nodes":[],"categories_segments":[],"categories_sizes":[],"default_left":[0,0,0,0,0,0,0,0,0,0,0,0,0,0,0],"id":45,"left_children":[1,3,5,7,9,11,13,-1,-1,-1,-1,-1,-1,-1,-1],"loss_changes":[2.961767E2,3.4779626E2,1.2021997E2,7.377327E2,7.678852E2,1.1887842E2,1.3684082E2,0E0,0E0,0E0,0E0,0E0,0E0,0E0,0E0],"parents":[2147483647,0,0,1,1,2,2,3,3,4,4,5,5,6,6],"right_children":[2,4,6,8,10,12,14,-1,-1,-1,-1,-1,-1,-1,-1],"split_conditions":[7.829E-1,1.94896E1,5.8E-1,1.73202E1,6.757095E1,2.62603E1,2.6570408E3,4.605988E-3,-4.0428185E-1,-8.8184685E-2,5.827678E-1,-3.9520195E-1,1.9816296E-1,4.823527E-2,-8.622729E-1],"split_indices":[5,6,10,6,1,3,8,0,0,0,0,0,0,0,0],"split_type":[0,0,0,0,0,0,0,0,0,0,0,0,0,0,0],"sum_hessian":[2.4E3,2.38E3,2E1,2.313E3,6.7E1,1.2E1,8E0,2.269E3,4.4E1,3.6E1,3.1E1,7E0,5E0,2E0,6E0],"tree_param":{"num_deleted":"0","num_feature":"42","num_nodes":"15","size_leaf_vector":"1"}},{"base_weights":[-1.1481105E-3,3.5803336E-1,-3.278591E-1,2.2021592E-1,4.3608193E0,-2.2084814E-1,-4.4176903E0,-8.69969E-2,6.138205E-2,2.4569575E-1,1.2426928E0,-3.0195773E-2,6.821145E-1,-1.5665823E-1,-1.0523471E0],"categories":[],"categories_nodes":[],"categories_segments":[],"categories_sizes":[],"default_left":[0,0,0,0,0,0,0,0,0,0,0,0,0,0,0],"id":46,"left_children":[1,3,5,7,9,11,13,-1,-1,-1,-1,-1,-1,-1,-1],"loss_changes":[2.8186823E2,6.2967346E2,5.491328E2,4.7552405E2,5.51536E2,7.0223724E2,5.3936884E2,0E0,0E0,0E0,0E0,0E0,0E0,0E0,0E0],"parents":[2147483647,0,0,1,1,2,2,3,3,4,4,5,5,6,6],"right_children":[2,4,6,8,10,12,14,-1,-1,-1,-1,-1,-1,-1,-1],"split_conditions":[6E-4,-1.065E-1,8.6E-1,-5.34E-2,5.7E-1,7E-1,1E0,-8.69969E-2,6.138205E-2,2.4569575E-1,1.2426928E0,-3.0195773E-2,6.821145E-1,-1.5665823E-1,-1.0523471E0],"split_indices":[2,2,9,16,9,9,7,0,0,0,0,0,0,0,0],"split_type":[0,0,0,0,0,0,0,0,0,0,0,0,0,0,0],"sum_hessian":[2.4E3,1.143E3,1.257E3,1.106E3,3.7E1,1.226E3,3.1E1,2.93E2,8.13E2,3.1E1,6E0,1.213E3,1.3E1,2.2E1,9E0],"tree_param":{"num_deleted":"0","num_feature":"42","num_nodes":"15","size_leaf_vector":"1"}},{"base_weights":[-6.54351E-4,3.9320263E-1,-3.1340215E-1,7.3641615E0,3.1321716E-1,-3.4367301E0,-1.6411646E-1,1.1927425E0,3.5791025E-1,4.720434E-2,-2.3189108E-1,-1.3581736E0,-2.0812435E-1,-1.0190155E-1,2.9471193E-2],"categories":[],"categories_nodes":[],"categories_segments":[],"categories_sizes":[],"default_left":[0,0,0,0,0,0,0,0,0,0,0,0,0,0,0],"id":47,"left_children":[1,3,5,7,9,11,13,-1,-1,-1,-1,-1,-1,-1,-1],"loss_changes":[2.958654E2,5.896283E2,6.2340906E2,1.6302655E2,4.4069955E2,8.090035E2,5.0206305E2,0E0,0E0,0E0,0E0,0E0,0E0,0E0,0E0],"parents":[2147483647,0,0,1,1,2,2,3,3,4,4,5,5,6,6],"right_children":[2,4,6,8,10,12,14,-1,-1,-1,-1,-1,-1,-1,-1],"split_conditions":[-1.7E-1,-4.3526E0,-1.68E0,-8.301E0,9.24E-2,-1.1E-1,4.7E-1,1.1927425E0,3.5791025E-1,4.720434E-2,-2.3189108E-1,-1.3581736E0,-2.0812435E-1,-1.0190155E-1,2.9471193E-2],"split_indices":[11,2,9,0,14,11,11,0,0,0,0,0,0,0,0],"split_type":[0,0,0,0,0,0,0,0,0,0,0,0,0,0,0],"sum_hessian":[2.4E3,1.062E3,1.338E3,1.1E1,1.051E3,6E1,1.278E3,4E0,7E0,9.92E2,5.9E1,6E0,5.4E1,4.46E2,8.32E2],"tree_param":{"num_deleted":"0","num_feature":"42","num_nodes":"15","size_leaf_vector":"1"}},{"base_weights":[-7.0421374E-4,-1.8706088E0,6.035058E-2,1.3913066E0,-4.150846E0,1.200303E0,-1.032005E-1,-1.2750272E0,2.762421E-1,2.53975E-1,-5.452792E-1,9.925553E-1,5.9052177E-2,-1.2893206E-1,2.0692706E-2],"categories":[],"categories_nodes":[],"categories_segments":[],"categories_sizes":[],"default_left":[0,0,0,0,0,0,0,0,0,0,0,0,0,0,0],"id":48,"left_children":[1,3,5,7,9,11,13,-1,-1,-1,-1,-1,-1,-1,-1],"loss_changes":[2.7440802E2,5.713346E2,4.3389407E2,6.5469385E2,4.0612567E2,1.5466714E3,7.4894684E2,0E0,0E0,0E0,0E0,0E0,0E0,0E0,0E0],"parents":[2147483647,0,0,1,1,2,2,3,3,4,4,5,5,6,6],"right_children":[2,4,6,8,10,12,14,-1,-1,-1,-1,-1,-1,-1,-1],"split_conditions":[-1.76192E1,4.1E-1,-9.178E0,1.59172E1,-2.68E0,1.144E-1,-4.016E0,-1.2750272E0,2.762421E-1,2.53975E-1,-5.452792E-1,9.925553E-1,5.9052177E-2,-1.2893206E-1,2.0692706E-2],"split_indices":[4,10,4,0,9,5,4,0,0,0,0,0,0,0,0],"split_type":[0,0,0,0,0,0,0,0,0,0,0,0,0,0,0],"sum_hessian":[2.4E3,7.5E1,2.325E3,3.1E1,4.4E1,2.91E2,2.034E3,2E0,2.9E1,7E0,3.7E1,1.8E1,2.73E2,4.21E2,1.613E3],"tree_param":{"num_deleted":"0","num_feature":"42","num_nodes":"15","size_leaf_vector":"1"}},{"base_weights":[-7.634695E-4,-3.1805966E-2,3.5141387E0,-1.950456E0,3.0539315E-2,7.818543E0,-3.573766E-1,-4.648327E-1,-4.6357014E-3,3.8613966E-1,-1.9880463E-3,1.1877078E0,5.306775E-1,1.0758365E0,-2.3550227E-1],"categories":[],"categories_nodes":[],"categories_segments":[],"categories_sizes":[],"default_left":[0,0,0,0,0,0,0,0,0,0,0,0,0,0,0],"id":49,"left_children":[1,3,5,7,9,11,13,-1,-1,-1,-1,-1,-1,-1,-1],"loss_changes":[2.6173984E2,2.8506387E2,3.5349615E2,3.84591E2,4.460602E2,3.7193665E1,2.9095966E2,0E0,0E0,0E0,0E0,0E0,0E0,0E0,0E0],"parents":[2147483647,0,0,1,1,2,2,3,3,4,4,5,5,6,6],"right_children":[2,4,6,8,10,12,14,-1,-1,-1,-1,-1,-1,-1,-1],"split_conditions":[7.18549E1,-2.305121E3,-3.06E0,-8.8E-1,-2.1335344E3,-3.9076E0,-3.26281E1,-4.648327E-1,-4.6357014E-3,3.8613966E-1,-1.9880463E-3,1.1877078E0,5.306775E-1,1.0758365E0,-2.3550227E-1],"split_indices":[1,8,4,10,8,6,0,0,0,0,0,0,0,0,0],"split_type":[0,0,0,0,0,0,0,0,0,0,0,0,0,0,0],"sum_hessian":[2.4E3,2.38E3,2E1,7.4E1,2.306E3,9E0,1.1E1,3E1,4.4E1,2.9E1,2.277E3,2E0,7E0,1E0,1E1],"tree_param":{"num_deleted":"0","num_feature":"42","num_nodes":"15","size_leaf_vector":"1"}},{"base_weights":[2.599485E-4,-4.3024144E0,2.5526775E-2,-1.4594039E0,-1.102009E0,1.7791677E0,-5.5058956E-2,4.57123E-1,-3.3185706E-1,-5.68798E-1,2.5395042E-1,-1.5506224E-1,8.13344E-3],"categories":[],"categories_nodes":[],"categories_segments":[],"categories_sizes":[],"default_left":[0,0,0,0,0,0,0,0,0,0,0,0,0],"id":50,"left_children":[1,3,5,7,-1,9,11,-1,-1,-1,-1,-1,-1],"loss_changes":[2.607067E2,2.5004718E2,3.3773877E2,1.3837616E2,0E0,6.10272E2,4.6617462E2,0E0,0E0,0E0,0E0,0E0,0E0],"parents":[2147483647,0,0,1,1,2,2,3,3,5,5,6,6],"right_children":[2,4,6,8,-1,10,12,-1,-1,-1,-1,-1,-1],"split_conditions":[-1.299E-1,-2.026E0,-7.92E-2,1.735E-1,-1.102009E0,-1.60426E1,-5.74E-2,4.57123E-1,-3.3185706E-1,-5.68798E-1,2.5395042E-1,-1.5506224E-1,8.13344E-3],"split_indices":[15,4,15,5,0,3,15,0,0,0,0,0,0],"split_type":[0,0,0,0,0,0,0,0,0,0,0,0,0],"sum_hessian":[2.4E3,1.3E1,2.387E3,1E1,3E0,1.04E2,2.283E3,2E0,8E0,9E0,9.5E1,1.9E2,2.093E3],"tree_param":{"num_deleted":"0","num_feature":"42","num_nodes":"13","size_leaf_vector":"1"}},{"base_weights":[-3.0278243E-4,-1.4764892E0,7.320489E-2,-1.0946248E0,-1.031714E0,2.8076803E-2,3.2507327E0,-1.6590042E-1,8.42113E-1,1.6580265E-2,-1.0828441E-1,-9.4550416E-2,6.572556E-1],"categories":[],"categories_nodes":[],"categories_segments":[],"categories_sizes":[],"default_left":[0,0,0,0,0,0,0,0,0,0,0,0,0],"id":51,"left_children":[1,3,5,-1,7,9,11,-1,-1,-1,-1,-1,-1],"loss_changes":[2.6078342E2,4.6766705E2,3.2767032E2,0E0,6.65559E2,3.454145E2,4.5283008E2,0E0,0E0,0E0,0E0,0E0,0E0],"parents":[2147483647,0,0,1,1,2,2,4,4,5,5,6,6],"right_children":[2,4,6,-1,8,10,12,-1,-1,-1,-1,-1,-1],"split_conditions":[6.4607E1,-7.3406E0,2.67E0,-1.0946248E0,2.35E0,9.3E-1,1.6452E0,-1.6590042E-1,8.42113E-1,1.6580265E-2,-1.0828441E-1,-9.4550416E-2,6.572556E-1],"split_indices":[1,2,11,0,9,10,0,0,0,0,0,0,0],"split_type":[0,0,0,0,0,0,0,0,0,0,0,0,0],"sum_hessian":[2.4E3,1.13E2,2.287E3,4E0,1.09E2,2.256E3,3.1E1,1.03E2,6E0,2.008E3,2.48E2,1.4E1,1.7E1],"tree_param":{"num_deleted":"0","num_feature":"42","num_nodes":"13","size_leaf_vector":"1"}},{"base_weights":[-2.4402242E-4,-1.7660489E0,5.740921E-2,4.9437353E-1,-5.2518425E0,6.7791367E0,3.7060287E-2,2.8492948E-1,-4.2401177E-1,-0E0,-9.842867E-1,4.5112763E-2,1.1387361E0,3.3203727E-1,-1.5563193E-4],"categories":[],"categories_nodes":[],"categories_segments":[],"categories_sizes":[],"default_left":[0,0,0,0,0,0,0,0,0,0,0,0,0,0,0],"id":52,"left_children":[1,3,5,7,9,11,13,-1,-1,-1,-1,-1,-1,-1,-1],"loss_changes":[2.4470451E2,6.0190393E2,3.172172E2,5.359619E2,7.226571E2,1.9780524E2,2.9449072E2,0E0,0E0,0E0,0E0,0E0,0E0,0E0,0E0],"parents":[2147483647,0,0,1,1,2,2,3,3,4,4,5,5,6,6],"right_children":[2,4,6,8,10,12,14,-1,-1,-1,-1,-1,-1,-1,-1],"split_conditions":[-9.09E-2,3.8532E0,-9.07E-2,5E-1,-1.051E-1,3.56E-2,-2.69E0,2.8492948E-1,-4.2401177E-1,-0E0,-9.842867E-1,4.5112763E-2,1.1387361E0,3.3203727E-1,-1.5563193E-4],"split_indices":[14,6,14,12,16,15,12,0,0,0,0,0,0,0,0],"split_type":[0,0,0,0,0,0,0,0,0,0,0,0,0,0,0],"sum_hessian":[2.4E3,7.5E1,2.325E3,4.6E1,2.9E1,6E0,2.319E3,3.1E1,1.5E1,1.4E1,1.5E1,3E0,3E0,2.6E1,2.293E3],"tree_param":{"num_deleted":"0","num_feature":"42","num_nodes":"15","size_leaf_vector":"1"}},{"base_weights":[-5.3786436E-5,-4.1902575E-1,2.4693766E-1,3.9364412E-2,-3.055825E0,4.065125E0,4.4619285E-2,-1.7488055E-1,3.5128392E-2,-5.9882104E-1,-1.2010476E-2,6.4846104E-1,-5.6226004E-2,-4.7598243E-1,1.7868845E-2],"categories":[],"categories_nodes":[],"categories_segments":[],"categories_sizes":[],"default_left":[0,0,0,0,0,0,0,0,0,0,0,0,0,0,0],"id":53,"left_children":[1,3,5,7,9,11,13,-1,-1,-1,-1,-1,-1,-1,-1],"loss_changes":[2.4858215E2,1.0773583E3,1.1666393E3,4.2437604E2,1.1350137E3,8.55126E2,9.2535986E2,0E0,0E0,0E0,0E0,0E0,0E0,0E0,0E0],"parents":[2147483647,0,0,1,1,2,2,3,3,4,4,5,5,6,6],"right_children":[2,4,6,8,10,12,14,-1,-1,-1,-1,-1,-1,-1,-1],"split_conditions":[-1.169E-1,-1.765E-1,-4.1156E0,-1.38E0,3.4E-1,2.96E-2,-3.4794E0,-1.7488055E-1,3.5128392E-2,-5.9882104E-1,-1.2010476E-2,6.4846104E-1,-5.6226004E-2,-4.7598243E-1,1.7868845E-2],"split_indices":[5,5,0,9,12,16,0,0,0,0,0,0,0,0,0],"split_type":[0,0,0,0,0,0,0,0,0,0,0,0,0,0,0],"sum_hessian":[2.4E3,8.9E2,1.51E3,7.59E2,1.31E2,7.5E1,1.435E3,1.12E2,6.47E2,6.5E1,6.6E1,4.9E1,2.6E1,3.8E1,1.397E3],"tree_param":{"num_deleted":"0","num_feature":"42","num_nodes":"15","size_leaf_vector":"1"}},{"base_weights":[-3.177552E-4,-5.316189E-1,1.8770786E-1,-9.1006994E-1,2.4487655E0,1.2461755E-1,8.103017E0,-6.960619E-2,-6.0878986E-1,-3.006456E-1,3.965458E-1,8.528294E-2,-3.1684596E-2,1.4994329E0,-9.1605574E-2],"categories":[],"categories_nodes":[],"categories_segments":[],"categories_sizes":[],"default_left":[0,0,0,0,0,0,0,0,0,0,0,0,0,0,0],"id":54,"left_children":[1,3,5,7,9,11,13,-1,-1,-1,-1,-1,-1,-1,-1],"loss_changes":[2.399898E2,7.104145E2,8.840663E2,6.1340204E2,5.9946423E2,5.6644824E2,8.852889E2,0E0,0E0,0E0,0E0,0E0,0E0,0E0,0E0],"parents":[2147483647,0,0,1,1,2,2,3,3,4,4,5,5,6,6],"right_children":[2,4,6,8,10,12,14,-1,-1,-1,-1,-1,-1,-1,-1],"split_conditions":[-4.96E-2,1.5E0,9.24E-2,1.29E0,6.522055E1,8.8E-3,-4.7E-1,-6.960619E-2,-6.0878986E-1,-3.006456E-1,3.965458E-1,8.528294E-2,-3.1684596E-2,1.4994329E0,-9.1605574E-2],"split_indices":[16,11,15,11,1,16,11,0,0,0,0,0,0,0,0],"split_type":[0,0,0,0,0,0,0,0,0,0,0,0,0,0,0],"sum_hessian":[2.4E3,6.27E2,1.773E3,5.57E2,7E1,1.76E3,1.3E1,5.36E2,2.1E1,1.5E1,5.5E1,6.64E2,1.096E3,7E0,6E0],"tree_param":{"num_deleted":"0","num_feature":"42","num_nodes":"15","size_leaf_vector":"1"}},{"base_weights":[-0E0,-1.5475176E-1,6.517161E-1,8.322514E0,-1.9419336E-1,1.3050146E0,-1.6306711E0,1.1798928E0,3.161598E-1,-7.217969E-1,-1.5018739E-2,6.6602737E-1,9.183146E-2,-8.022349E-2,-1.0182979E0],"categories":[],"categories_nodes":[],"categories_segments":[],"categories_sizes":[],"default_left":[0,0,0,0,0,0,0,0,0,0,0,0,0,0,0],"id":55,"left_children":[1,3,5,7,9,11,13,-1,-1,-1,-1,-1,-1,-1,-1],"loss_changes":[2.4228561E2,6.497904E2,6.894835E2,1.22673706E2,5.956464E2,7.365715E2,7.2049164E2,0E0,0E0,0E0,0E0,0E0,0E0,0E0,0E0],"parents":[2147483647,0,0,1,1,2,2,3,3,4,4,5,5,6,6],"right_children":[2,4,6,8,10,12,14,-1,-1,-1,-1,-1,-1,-1,-1],"split_conditions":[6.898415E1,-2.69E0,4.99E-2,5.7049E0,-2.34E0,-1.64016E1,9.4E-1,1.1798928E0,3.161598E-1,-7.217969E-1,-1.5018739E-2,6.6602737E-1,9.183146E-2,-8.022349E-2,-1.0182979E0],"split_indices":[1,12,14,0,12,6,12,0,0,0,0,0,0,0,0],"split_type":[0,0,0,0,0,0,0,0,0,0,0,0,0,0,0],"sum_hessian":[2.4E3,1.94E3,4.6E2,8E0,1.932E3,3.58E2,1.02E2,4E0,4E0,1.1E1,1.921E3,2.3E1,3.35E2,9.4E1,8E0],"tree_param":{"num_deleted":"0","num_feature":"42","num_nodes":"15","size_leaf_vector":"1"}},{"base_weights":[1.5590148E-4,4.1628703E-2,-2.446317E0,-1.4502375E-2,3.4775007E0,-3.7658331E0,5.641913E0,5.4705585E-3,-3.9718747E-1,-2.4327233E-1,6.302709E-1,-4.6702954E-1,7.4051946E-1,6.1601394E-1,1.4753906E-1],"categories":[],"categories_nodes":[],"categories_segments":[],"categories_sizes":[],"default_left":[0,0,0,0,0,0,0,0,0,0,0,0,0,0,0],"id":56,"left_children":[1,3,5,7,9,11,13,-1,-1,-1,-1,-1,-1,-1,-1],"loss_changes":[2.4347186E2,4.5593018E2,4.4796085E2,6.373839E2,6.50229E2,3.879429E2,3.1030579E0,0E0,0E0,0E0,0E0,0E0,0E0,0E0,0E0],"parents":[2147483647,0,0,1,1,2,2,3,3,4,4,5,5,6,6],"right_children":[2,4,6,8,10,12,14,-1,-1,-1,-1,-1,-1,-1,-1],"split_conditions":[1.75E0,1.52E0,4.536E0,1.32E0,9.63E-2,1.57391E1,7.575E-1,5.4705585E-3,-3.9718747E-1,-2.4327233E-1,6.302709E-1,-4.6702954E-1,7.4051946E-1,6.1601394E-1,1.4753906E-1],"split_indices":[10,10,4,10,5,6,2,0,0,0,0,0,0,0,0],"split_type":[0,0,0,0,0,0,0,0,0,0,0,0,0,0,0],"sum_hessian":[2.4E3,2.361E3,3.9E1,2.324E3,3.7E1,3.4E1,5E0,2.285E3,3.9E1,1.2E1,2.5E1,3.2E1,2E0,4E0,1E0],"tree_param":{"num_deleted":"0","num_feature":"42","num_nodes":"15","size_leaf_vector":"1"}},{"base_weights":[5.820545E-4,3.035968E-2,-3.3708992E0,-1.599034E-1,6.8734205E-1,-6.5147715E0,-1.6723657E0,1.1147272E-2,-1.3050334E-1,3.9622125E-1,2.1782465E-2,-0E0,-7.584377E-1,-7.116212E-1,2.7328033E-2],"categories":[],"categories_nodes":[],"categories_segments":[],"categories_sizes":[],"default_left":[0,0,0,0,0,0,0,0,0,0,0,0,0,0,0],"id":57,"left_children":[1,3,5,7,9,11,13,-1,-1,-1,-1,-1,-1,-1,-1],"loss_changes":[2.40816E2,2.9778647E2,1.00425644E2,5.7424036E2,8.2133954E2,4.8040894E1,1.61506E2,0E0,0E0,0E0,0E0,0E0,0E0,0E0,0E0],"parents":[2147483647,0,0,1,1,2,2,3,3,4,4,5,5,6,6],"right_children":[2,4,6,8,10,12,14,-1,-1,-1,-1,-1,-1,-1,-1],"split_conditions":[7.829E-1,7.953E0,2.10823E1,4.335E0,-4.477E-1,3.97836E1,-1.2298E0,1.1147272E-2,-1.3050334E-1,3.9622125E-1,2.1782465E-2,-0E0,-7.584377E-1,-7.116212E-1,2.7328033E-2],"split_indices":[5,3,3,6,6,0,2,0,0,0,0,0,0,0,0],"split_type":[0,0,0,0,0,0,0,0,0,0,0,0,0,0,0],"sum_hessian":[2.4E3,2.38E3,2E1,1.846E3,5.34E2,6E0,1.4E1,1.493E3,3.53E2,6.6E1,4.68E2,1E0,5E0,3E0,1.1E1],"tree_param":{"num_deleted":"0","num_feature":"42","num_nodes":"15","size_leaf_vector":"1"}},{"base_weights":[4.5956855E-5,-5.3052086E-1,1.9611622E-1,6.309888E-2,-2.3420804E0,1.6207869E0,-1.6776328E-1,-7.319329E-2,1.6879581E-1,-3.0412626E-1,7.3960465E-1,7.048413E-1,1.1550466E-1,1.1124526E-2,-1.8018195E-1],"categories":[],"categories_nodes":[],"categories_segments":[],"categories_sizes":[],"default_left":[0,0,0,0,0,0,0,0,0,0,0,0,0,0,0],"id":58,"left_children":[1,3,5,7,9,11,13,-1,-1,-1,-1,-1,-1,-1,-1],"loss_changes":[2.4984274E2,6.972203E2,9.097056E2,6.3302844E2,1.1114539E3,8.9348615E2,6.377396E2,0E0,0E0,0E0,0E0,0E0,0E0,0E0,0E0],"parents":[2147483647,0,0,1,1,2,2,3,3,4,4,5,5,6,6],"right_children":[2,4,6,8,10,12,14,-1,-1,-1,-1,-1,-1,-1,-1],"split_conditions":[-5.4009E0,-7.69E0,-1.5923E0,3.36E-2,5.115E0,-2.42E0,6.87E-2,-7.319329E-2,1.6879581E-1,-3.0412626E-1,7.3960465E-1,7.048413E-1,1.1550466E-1,1.1124526E-2,-1.8018195E-1],"split_indices":[6,6,6,14,3,9,16,0,0,0,0,0,0,0,0],"split_type":[0,0,0,0,0,0,0,0,0,0,0,0,0,0,0],"sum_hessian":[2.4E3,6.47E2,1.753E3,4.88E2,1.59E2,3.56E2,1.397E3,3.28E2,1.6E2,1.49E2,1E1,2.7E1,3.29E2,1.194E3,2.03E2],"tree_param":{"num_deleted":"0","num_feature":"42","num_nodes":"15","size_leaf_vector":"1"}},{"base_weights":[5.2911584E-4,4.0345397E-2,-2.3481355E0,-1.8118514E0,1.0025025E-1,6.119069E0,-4.332666E0,-5.4978323E-1,5.4913342E-2,1.9634579E-1,2.3055098E-3,-1.10290684E-1,1.0692836E0,-5.4044463E-2,-8.321873E-1],"categories":[],"categories_nodes":[],"categories_segments":[],"categories_sizes":[],"default_left":[0,0,0,0,0,0,0,0,0,0,0,0,0,0,0],"id":59,"left_children":[1,3,5,7,9,11,13,-1,-1,-1,-1,-1,-1,-1,-1],"loss_changes":[2.2439368E2,2.6208755E2,6.9847015E2,6.4750226E2,3.2898434E2,2.7700528E2,4.938388E2,0E0,0E0,0E0,0E0,0E0,0E0,0E0,0E0],"parents":[2147483647,0,0,1,1,2,2,3,3,4,4,5,5,6,6],"right_children":[2,4,6,8,10,12,14,-1,-1,-1,-1,-1,-1,-1,-1],"split_conditions":[1.555E-1,-1.76192E1,-1.084E1,1.26296E1,-7.92E-2,-6.2E-1,-3.692E0,-5.4978323E-1,5.4913342E-2,1.9634579E-1,2.3055098E-3,-1.10290684E-1,1.0692836E0,-5.4044463E-2,-8.321873E-1],"split_indices":[16,4,4,6,15,11,6,0,0,0,0,0,0,0,0],"split_type":[0,0,0,0,0,0,0,0,0,0,0,0,0,0,0],"sum_hessian":[2.4E3,2.361E3,3.9E1,7.3E1,2.288E3,7E0,3.2E1,2.8E1,4.5E1,9E1,2.198E3,3E0,4E0,1.7E1,1.5E1],"tree_param":{"num_deleted":"0","num_feature":"42","num_nodes":"15","size_leaf_vector":"1"}},{"base_weights":[3.6628338E-4,-4.0217793E-1,2.3780277E-1,-1.538437E-1,-4.574083E0,3.6310773E0,5.7979185E-2,1.3526775E-2,-1.8140692E-1,-6.7201275E-1,2.7734026E-1,5.7772404E-1,-4.740789E-2,-4.2038852E-1,1.7690245E-2],"categories":[],"categories_nodes":[],"categories_segments":[],"categories_sizes":[],"default_left":[0,0,0,0,0,0,0,0,0,0,0,0,0,0,0],"id":60,"left_children":[1,3,5,7,9,11,13,-1,-1,-1,-1,-1,-1,-1,-1],"loss_changes":[2.2956361E2,9.219234E2,9.214188E2,4.04565E2,8.0743384E2,6.7285455E2,7.281558E2,0E0,0E0,0E0,0E0,0E0,0E0,0E0,0E0],"parents":[2147483647,0,0,1,1,2,2,3,3,4,4,5,5,6,6],"right_children":[2,4,6,8,10,12,14,-1,-1,-1,-1,-1,-1,-1,-1],"split_conditions":[-1.169E-1,-6.1554E0,-4.1156E0,4.9E-1,1.15E0,2.96E-2,-3.4794E0,1.3526775E-2,-1.8140692E-1,-6.7201275E-1,2.7734026E-1,5.7772404E-1,-4.740789E-2,-4.2038852E-1,1.7690245E-2],"split_indices":[5,0,0,10,12,16,0,0,0,0,0,0,0,0,0],"split_type":[0,0,0,0,0,0,0,0,0,0,0,0,0,0,0],"sum_hessian":[2.4E3,8.9E2,1.51E3,8.41E2,4.9E1,7.5E1,1.435E3,7.17E2,1.24E2,3.8E1,1.1E1,4.9E1,2.6E1,3.8E1,1.397E3],"tree_param":{"num_deleted":"0","num_feature":"42","num_nodes":"15","size_leaf_vector":"1"}},{"base_weights":[1.4008979E-4,3.2202306E-1,-2.9249445E-1,1.9589084E-1,3.9853482E0,-4.148231E-2,-2.0518758E0,-1.706612E-2,1.2899278E-1,2.2603957E-1,1.1287224E0,7.157319E-2,-8.5727334E-2,-4.8297095E-1,-3.2920346E-2],"categories":[],"categories_nodes":[],"categories_segments":[],"categories_sizes":[],"default_left":[0,0,0,0,0,0,0,0,0,0,0,0,0,0,0],"id":61,"left_children":[1,3,5,7,9,11,13,-1,-1,-1,-1,-1,-1,-1,-1],"loss_changes":[2.2625713E2,5.274016E2,5.5527124E2,4.4426285E2,4.5175647E2,6.8136456E2,7.491859E2,0E0,0E0,0E0,0E0,0E0,0E0,0E0,0E0],"parents":[2147483647,0,0,1,1,2,2,3,3,4,4,5,5,6,6],"right_children":[2,4,6,8,10,12,14,-1,-1,-1,-1,-1,-1,-1,-1],"split_conditions":[6E-4,-1.065E-1,1E-1,6.228E0,5.7E-1,1.3965942E2,-6.8145E0,-1.706612E-2,1.2899278E-1,2.2603957E-1,1.1287224E0,7.157319E-2,-8.5727334E-2,-4.8297095E-1,-3.2920346E-2],"split_indices":[2,2,9,3,9,8,3,0,0,0,0,0,0,0,0],"split_type":[0,0,0,0,0,0,0,0,0,0,0,0,0,0,0],"sum_hessian":[2.4E3,1.143E3,1.257E3,1.106E3,3.7E1,1.101E3,1.56E2,8.29E2,2.77E2,3.1E1,6E0,5.71E2,5.3E2,5.9E1,9.7E1],"tree_param":{"num_deleted":"0","num_feature":"42","num_nodes":"15","size_leaf_vector":"1"}},{"base_weights":[5.108637E-4,-4.9916813E-1,1.7745443E-1,1.1321362E0,-1.0784053E0,1.1992886E-1,7.3935313E0,-8.098281E-1,1.5320154E-1,-4.4775686E-1,-3.2589052E-2,2.8680128E-1,1.1172787E-3,1.756086E0,1.560514E-1],"categories":[],"categories_nodes":[],"categories_segments":[],"categories_sizes":[],"default_left":[0,0,0,0,0,0,0,0,0,0,0,0,0,0,0],"id":62,"left_children":[1,3,5,7,9,11,13,-1,-1,-1,-1,-1,-1,-1,-1],"loss_changes":[2.1234077E2,5.9462036E2,7.347652E2,6.2077344E2,1.1849358E3,5.259915E2,8.0097076E2,0E0,0E0,0E0,0E0,0E0,0E0,0E0,0E0],"parents":[2147483647,0,0,1,1,2,2,3,3,4,4,5,5,6,6],"right_children":[2,4,6,8,10,12,14,-1,-1,-1,-1,-1,-1,-1,-1],"split_conditions":[-4.96E-2,-2.1866E0,9.24E-2,-6.9E-1,-9.516E-1,-4.37E-2,-1.062E0,-8.098281E-1,1.5320154E-1,-4.4775686E-1,-3.2589052E-2,2.8680128E-1,1.1172787E-3,1.756086E0,1.560514E-1],"split_indices":[16,2,15,11,2,16,3,0,0,0,0,0,0,0,0],"split_type":[0,0,0,0,0,0,0,0,0,0,0,0,0,0,0],"sum_hessian":[2.4E3,6.27E2,1.773E3,1.64E2,4.63E2,1.76E3,1.3E1,6E0,1.58E2,8.3E1,3.8E2,6.6E1,1.694E3,4E0,9E0],"tree_param":{"num_deleted":"0","num_feature":"42","num_nodes":"15","size_leaf_vector":"1"}},{"base_weights":[8.9900004E-4,3.3185738E-1,-2.617669E-1,1.1102847E-1,2.1504207E0,5.511505E-2,-1.4940093E0,-1.00878574E-1,5.861355E-2,-3.5115358E-1,3.6833712E-1,2.1310039E-2,-3.027774E-1,-2.0587051E-1,4.4698516E-1],"categories":[],"categories_nodes":[],"categories_segments":[],"categories_sizes":[],"default_left":[0,0,0,0,0,0,0,0,0,0,0,0,0,0,0],"id":63,"left_children":[1,3,5,7,9,11,13,-1,-1,-1,-1,-1,-1,-1,-1],"loss_changes":[2.0881638E2,4.2642667E2,5.230728E2,5.05447E2,1.0110939E3,5.1956036E2,9.317292E2,0E0,0E0,0E0,0E0,0E0,0E0,0E0,0E0],"parents":[2147483647,0,0,1,1,2,2,3,3,4,4,5,5,6,6],"right_children":[2,4,6,8,10,12,14,-1,-1,-1,-1,-1,-1,-1,-1],"split_conditions":[-1.7E-1,-3.1E-1,1.048E0,-4.9406E0,-6.94E-2,1.084E-1,1.014E-1,-1.00878574E-1,5.861355E-2,-3.5115358E-1,3.6833712E-1,2.1310039E-2,-3.027774E-1,-2.0587051E-1,4.4698516E-1],"split_indices":[11,11,2,6,16,15,16,0,0,0,0,0,0,0,0],"split_type":[0,0,0,0,0,0,0,0,0,0,0,0,0,0,0],"sum_hessian":[2.4E3,1.062E3,1.338E3,9.48E2,1.14E2,1.065E3,2.73E2,2.82E2,6.66E2,2.4E1,9E1,1.014E3,5.1E1,2.5E2,2.3E1],"tree_param":{"num_deleted":"0","num_feature":"42","num_nodes":"15","size_leaf_vector":"1"}},{"base_weights":[7.7942095E-4,-4.0970422E-2,2.094824E0,-3.191014E-3,-5.23068E0,4.150444E0,-3.0398836E0,-2.4214152E-3,6.9896907E-1,-1.2694799E0,4.7408038E-1,1.5886074E-1,1.1079035E0,2.5069472E-1,-8.959136E-1],"categories":[],"categories_nodes":[],"categories_segments":[],"categories_sizes":[],"default_left":[0,0,0,0,0,0,0,0,0,0,0,0,0,0,0],"id":64,"left_children":[1,3,5,7,9,11,13,-1,-1,-1,-1,-1,-1,-1,-1],"loss_changes":[2.1020113E2,4.61191E2,5.0881332E2,3.433345E2,1.3262607E3,5.846302E2,4.8276855E2,0E0,0E0,0E0,0E0,0E0,0E0,0E0,0E0],"parents":[2147483647,0,0,1,1,2,2,3,3,4,4,5,5,6,6],"right_children":[2,4,6,8,10,12,14,-1,-1,-1,-1,-1,-1,-1,-1],"split_conditions":[1.233E-1,1.193E-1,3.015E0,9.32E-2,6.9287E0,5E-1,-6.526E-1,-2.4214152E-3,6.9896907E-1,-1.2694799E0,4.7408038E-1,1.5886074E-1,1.1079035E0,2.5069472E-1,-8.959136E-1],"split_indices":[15,15,4,17,6,12,2,0,0,0,0,0,0,0,0],"split_type":[0,0,0,0,0,0,0,0,0,0,0,0,0,0,0],"sum_hessian":[2.4E3,2.354E3,4.6E1,2.338E3,1.6E1,3.3E1,1.3E1,2.332E3,6E0,9E0,7E0,2.5E1,8E0,7E0,6E0],"tree_param":{"num_deleted":"0","num_feature":"42","num_nodes":"15","size_leaf_vector":"1"}},{"base_weights":[9.1282895E-4,2.1461502E-2,-4.083441E0,-4.060965E0,4.3812253E-2,-8.555268E0,3.1861746E-1,-1.459458E-1,-9.5244926E-1,1.5491466E-1,-2.9836742E-3,-2.4304831E-1,-1.0985041E0,-1.20383814E-1,4.7766754E-1],"categories":[],"categories_nodes":[],"categories_segments":[],"categories_sizes":[],"default_left":[0,0,0,0,0,0,0,0,0,0,0,0,0,0,0],"id":65,"left_children":[1,3,5,7,9,11,13,-1,-1,-1,-1,-1,-1,-1,-1],"loss_changes":[2.0119269E2,2.1785246E2,2.3977245E2,1.6977525E2,2.6383835E2,6.125052E1,5.3617992E1,0E0,0E0,0E0,0E0,0E0,0E0,0E0,0E0],"parents":[2147483647,0,0,1,1,2,2,3,3,4,4,5,5,6,6],"right_children":[2,4,6,8,10,12,14,-1,-1,-1,-1,-1,-1,-1,-1],"split_conditions":[3.0735884E3,-1.299E-1,2.62603E1,-2.026E0,-7.67E-2,-2.23E-2,6.777325E1,-1.459458E-1,-9.5244926E-1,1.5491466E-1,-2.9836742E-3,-2.4304831E-1,-1.0985041E0,-1.20383814E-1,4.7766754E-1],"split_indices":[8,15,3,4,15,14,1,0,0,0,0,0,0,0,0],"split_type":[0,0,0,0,0,0,0,0,0,0,0,0,0,0,0],"sum_hessian":[2.4E3,2.389E3,1.1E1,1.2E1,2.377E3,5E0,6E0,9E0,3E0,1.1E2,2.267E3,2E0,3E0,5E0,1E0],"tree_param":{"num_deleted":"0","num_feature":"42","num_nodes":"15","size_leaf_vector":"1"}},{"base_weights":[3.5677979E-6,-4.9244147E-2,1.6918296E0,2.7981821E-2,-3.1364636E0,-1.001249E0,4.9416733E0,-4.438003E-3,2.8500882E-1,-1.0015415E0,-1.4576356E-1,-2.6719806E-1,5.585492E-1,8.303772E-1,-1.06529795E-1],"categories":[],"categories_nodes":[],"categories_segments":[],"categories_sizes":[],"default_left":[0,0,0,0,0,0,0,0,0,0,0,0,0,0,0],"id":66,"left_children":[1,3,5,7,9,11,13,-1,-1,-1,-1,-1,-1,-1,-1],"loss_changes":[2.0029544E2,5.568558E2,6.0048364E2,4.6560394E2,6.425227E2,4.3281067E2,6.356467E2,0E0,0E0,0E0,0E0,0E0,0E0,0E0,0E0],"parents":[2147483647,0,0,1,1,2,2,3,3,4,4,5,5,6,6],"right_children":[2,4,6,8,10,12,14,-1,-1,-1,-1,-1,-1,-1,-1],"split_conditions":[1.99041E1,1.73202E1,1.6E-1,1.52985E1,4.086E0,2.40478E1,5E-1,-4.438003E-3,2.8500882E-1,-1.0015415E0,-1.4576356E-1,-2.6719806E-1,5.585492E-1,8.303772E-1,-1.06529795E-1],"split_indices":[6,6,10,6,3,6,11,0,0,0,0,0,0,0,0],"split_type":[0,0,0,0,0,0,0,0,0,0,0,0,0,0,0],"sum_hessian":[2.4E3,2.333E3,6.7E1,2.277E3,5.6E1,3.7E1,3E1,2.221E3,5.6E1,1E1,4.6E1,3E1,7E0,1.9E1,1.1E1],"tree_param":{"num_deleted":"0","num_feature":"42","num_nodes":"15","size_leaf_vector":"1"}},{"base_weights":[4.064392E-5,-1.412322E-1,5.9507436E-1,7.602584E0,-1.7726588E-1,1.1000713E0,-1.8594686E0,1.0928102E0,2.736549E-1,-5.24084E-1,-1.2421012E-2,1.7517497E-1,-1.737758E-1,5.46295E-1,-3.1257853E-1],"categories":[],"categories_nodes":[],"categories_segments":[],"categories_sizes":[],"default_left":[0,0,0,0,0,0,0,0,0,0,0,0,0,0,0],"id":67,"left_children":[1,3,5,7,9,11,13,-1,-1,-1,-1,-1,-1,-1,-1],"loss_changes":[2.0196255E2,5.422183E2,5.73396E2,1.14367004E2,5.1811646E2,7.113473E2,7.4937E2,0E0,0E0,0E0,0E0,0E0,0E0,0E0,0E0],"parents":[2147483647,0,0,1,1,2,2,3,3,4,4,5,5,6,6],"right_children":[2,4,6,8,10,12,14,-1,-1,-1,-1,-1,-1,-1,-1],"split_conditions":[6.898415E1,-2.69E0,6.8E-1,5.7049E0,-2.22E0,6.09E-2,6.908075E1,1.0928102E0,2.736549E-1,-5.24084E-1,-1.2421012E-2,1.7517497E-1,-1.737758E-1,5.46295E-1,-3.1257853E-1],"split_indices":[1,12,10,0,12,14,1,0,0,0,0,0,0,0,0],"split_type":[0,0,0,0,0,0,0,0,0,0,0,0,0,0,0],"sum_hessian":[2.4E3,1.94E3,4.6E2,8E0,1.932E3,3.82E2,7.8E1,4E0,4E0,1.9E1,1.913E3,3.11E2,7.1E1,1.1E1,6.7E1],"tree_param":{"num_deleted":"0","num_feature":"42","num_nodes":"15","size_leaf_vector":"1"}},{"base_weights":[4.763297E-4,2.7882565E-2,-3.1021295E0,-1.6243488E-2,2.6806893E0,-6.1251054E0,-1.4779321E0,8.73754E-4,-5.322107E-1,3.7713695E-1,-5.4702103E-1,-9.4711524E-1,-2.872456E-1,-6.1532533E-1,1.953359E-2],"categories":[],"categories_nodes":[],"categories_segments":[],"categories_sizes":[],"default_left":[0,0,0,0,0,0,0,0,0,0,0,0,0,0,0],"id":68,"left_children":[1,3,5,7,9,11,13,-1,-1,-1,-1,-1,-1,-1,-1],"loss_changes":[2.0393788E2,2.7902484E2,9.3295334E1,3.1113293E2,3.6717123E2,4.774478E1,1.1914372E2,0E0,0E0,0E0,0E0,0E0,0E0,0E0,0E0],"parents":[2147483647,0,0,1,1,2,2,3,3,4,4,5,5,6,6],"right_children":[2,4,6,8,10,12,14,-1,-1,-1,-1,-1,-1,-1,-1],"split_conditions":[7.829E-1,3.63813E1,2.10823E1,2.2446E1,4.58186E1,2.6E-3,-1.2298E0,8.73754E-4,-5.322107E-1,3.7713695E-1,-5.4702103E-1,-9.4711524E-1,-2.872456E-1,-6.1532533E-1,1.953359E-2],"split_indices":[5,0,3,3,0,16,2,0,0,0,0,0,0,0,0],"split_type":[0,0,0,0,0,0,0,0,0,0,0,0,0,0,0],"sum_hessian":[2.4E3,2.38E3,2E1,2.342E3,3.8E1,6E0,1.4E1,2.332E3,1E1,3.4E1,4E0,2E0,4E0,3E0,1.1E1],"tree_param":{"num_deleted":"0","num_feature":"42","num_nodes":"15","size_leaf_vector":"1"}},{"base_weights":[-5.657852E-4,3.0246845E-1,-2.762181E-1,1.2413437E0,-1.389062E-1,-6.89014E0,-2.1762085E-1,-8.072408E-1,1.4990363E-1,-3.0230507E-1,2.5635405E-2,-9.038708E-2,-1.0167454E0,2.3078296E-2,-1.01076625E-1],"categories":[],"categories_nodes":[],"categories_segments":[],"categories_sizes":[],"default_left":[0,0,0,0,0,0,0,0,0,0,0,0,0,0,0],"id":69,"left_children":[1,3,5,7,9,11,13,-1,-1,-1,-1,-1,-1,-1,-1],"loss_changes":[2.0064145E2,4.7435144E2,4.8533722E2,8.8987384E2,8.89102E2,2.0551062E2,4.441618E2,0E0,0E0,0E0,0E0,0E0,0E0,0E0,0E0],"parents":[2147483647,0,0,1,1,2,2,3,3,4,4,5,5,6,6],"right_children":[2,4,6,8,10,12,14,-1,-1,-1,-1,-1,-1,-1,-1],"split_conditions":[6E-4,1.8E-1,1.57E-2,6.552755E1,4E-1,-1.133E0,1.144E-1,-8.072408E-1,1.4990363E-1,-3.0230507E-1,2.5635405E-2,-9.038708E-2,-1.0167454E0,2.3078296E-2,-1.01076625E-1],"split_indices":[2,11,2,1,11,4,5,0,0,0,0,0,0,0,0],"split_type":[0,0,0,0,0,0,0,0,0,0,0,0,0,0,0],"sum_hessian":[2.4E3,1.143E3,1.257E3,3.65E2,7.78E2,1E1,1.247E3,9E0,3.56E2,9.3E1,6.85E2,4E0,6E0,7.97E2,4.5E2],"tree_param":{"num_deleted":"0","num_feature":"42","num_nodes":"15","size_leaf_vector":"1"}},{"base_weights":[-1.3935857E-3,-3.7051728E-1,2.1620445E-1,-4.6965357E-2,-3.1122613E0,3.2193763E0,5.7042003E-2,-1.8843397E-1,2.8406365E-2,-5.560363E-2,-6.862065E-1,4.2238542E-1,-4.7166076E-1,-3.807496E-1,1.6488174E-2],"categories":[],"categories_nodes":[],"categories_segments":[],"categories_sizes":[],"default_left":[0,0,0,0,0,0,0,0,0,0,0,0,0,0,0],"id":70,"left_children":[1,3,5,7,9,11,13,-1,-1,-1,-1,-1,-1,-1,-1],"loss_changes":[1.9294528E2,7.89941E2,7.2173486E2,4.8605823E2,8.9646497E2,6.2570844E2,5.987176E2,0E0,0E0,0E0,0E0,0E0,0E0,0E0,0E0],"parents":[2147483647,0,0,1,1,2,2,3,3,4,4,5,5,6,6],"right_children":[2,4,6,8,10,12,14,-1,-1,-1,-1,-1,-1,-1,-1],"split_conditions":[-1.169E-1,-1.607E-1,-4.1156E0,-1.38E0,5.4E-1,1.08E0,-3.4794E0,-1.8843397E-1,2.8406365E-2,-5.560363E-2,-6.862065E-1,4.2238542E-1,-4.7166076E-1,-3.807496E-1,1.6488174E-2],"split_indices":[5,5,0,9,9,10,0,0,0,0,0,0,0,0,0],"split_type":[0,0,0,0,0,0,0,0,0,0,0,0,0,0,0],"sum_hessian":[2.4E3,8.9E2,1.51E3,7.97E2,9.3E1,7.5E1,1.435E3,1.21E2,6.76E2,5.6E1,3.7E1,6.7E1,8E0,3.8E1,1.397E3],"tree_param":{"num_deleted":"0","num_feature":"42","num_nodes":"15","size_leaf_vector":"1"}},{"base_weights":[-1.8024271E-3,-2.5214064E-1,3.2484037E-1,5.8536086E0,-3.6628106E-1,1.6718186E0,-3.2126388E-1,8.874144E-1,4.2539123E-2,-7.2155766E-2,6.248192E-2,-2.3081835E-2,2.5545588E-1,1.3390561E-2,-3.3949777E-1],"categories":[],"categories_nodes":[],"categories_segments":[],"categories_sizes":[],"default_left":[0,0,0,0,0,0,0,0,0,0,0,0,0,0,0],"id":71,"left_children":[1,3,5,7,9,11,13,-1,-1,-1,-1,-1,-1,-1,-1],"loss_changes":[1.9640721E2,9.4939667E2,9.0751263E2,4.0519818E2,4.7088574E2,5.685044E2,9.871186E2,0E0,0E0,0E0,0E0,0E0,0E0,0E0,0E0],"parents":[2147483647,0,0,1,1,2,2,3,3,4,4,5,5,6,6],"right_children":[2,4,6,8,10,12,14,-1,-1,-1,-1,-1,-1,-1,-1],"split_conditions":[1.3E-1,-5.5128E0,4.3E-1,2.58E-2,3.3E-2,-2.15E-2,5.79E-2,8.874144E-1,4.2539123E-2,-7.2155766E-2,6.248192E-2,-2.3081835E-2,2.5545588E-1,1.3390561E-2,-3.3949777E-1],"split_indices":[10,2,10,16,14,15,15,0,0,0,0,0,0,0,0],"split_type":[0,0,0,0,0,0,0,0,0,0,0,0,0,0,0],"sum_hessian":[2.4E3,1.359E3,1.041E3,2.4E1,1.335E3,3.37E2,7.04E2,1.5E1,9E0,9.83E2,3.52E2,1.07E2,2.3E2,6.14E2,9E1],"tree_param":{"num_deleted":"0","num_feature":"42","num_nodes":"15","size_leaf_vector":"1"}},{"base_weights":[-1.2710959E-3,-1.5836457E0,5.0389156E-2,-4.3728037E0,5.4194206E-1,5.983351E0,3.2423154E-2,-6.7008835E-1,7.2037005E-1,-1.4399022E-1,8.420214E-1,6.463486E-2,9.799517E-1,-7.7324774E-4,2.3837753E-1],"categories":[],"categories_nodes":[],"categories_segments":[],"categories_sizes":[],"default_left":[0,0,0,0,0,0,0,0,0,0,0,0,0,0,0],"id":72,"left_children":[1,3,5,7,9,11,13,-1,-1,-1,-1,-1,-1,-1,-1],"loss_changes":[1.9650497E2,4.5332654E2,2.4713649E2,9.3760455E2,6.9981665E2,1.3518968E2,2.193105E2,0E0,0E0,0E0,0E0,0E0,0E0,0E0,0E0],"parents":[2147483647,0,0,1,1,2,2,3,3,4,4,5,5,6,6],"right_children":[2,4,6,8,10,12,14,-1,-1,-1,-1,-1,-1,-1,-1],"split_conditions":[-9.09E-2,2E-2,-9.07E-2,-4.96E-2,3.63E-2,3.56E-2,8.0359E0,-6.7008835E-1,7.2037005E-1,-1.4399022E-1,8.420214E-1,6.463486E-2,9.799517E-1,-7.7324774E-4,2.3837753E-1],"split_indices":[14,11,14,16,15,15,2,0,0,0,0,0,0,0,0],"split_type":[0,0,0,0,0,0,0,0,0,0,0,0,0,0,0],"sum_hessian":[2.4E3,7.5E1,2.325E3,3.2E1,4.3E1,6E0,2.319E3,2.7E1,5E0,3.5E1,8E0,3E0,3E0,2.281E3,3.8E1],"tree_param":{"num_deleted":"0","num_feature":"42","num_nodes":"15","size_leaf_vector":"1"}},{"base_weights":[-2.957536E-4,-2.196231E0,3.590474E-2,1.1556946E0,-5.129105E0,-4.4768705E0,6.088567E-2,5.262476E-1,-3.0566567E-1,2.2210036E-1,-6.995072E-1,3.0958876E-1,-7.068287E-1,2.1326959E-1,-1.4883893E-3],"categories":[],"categories_nodes":[],"categories_segments":[],"categories_sizes":[],"default_left":[0,0,0,0,0,0,0,0,0,0,0,0,0,0,0],"id":73,"left_children":[1,3,5,7,9,11,13,-1,-1,-1,-1,-1,-1,-1,-1],"loss_changes":[1.9115984E2,3.8972522E2,2.6621985E2,3.449911E2,3.040298E2,2.7739407E2,3.6930392E2,0E0,0E0,0E0,0E0,0E0,0E0,0E0,0E0],"parents":[2147483647,0,0,1,1,2,2,3,3,4,4,5,5,6,6],"right_children":[2,4,6,8,10,12,14,-1,-1,-1,-1,-1,-1,-1,-1],"split_conditions":[-2.6071914E3,-2.63E-2,-2.4229E1,-7.4E-1,-7.997E-1,-2.5147922E3,-2.0122358E3,5.262476E-1,-3.0566567E-1,2.2210036E-1,-6.995072E-1,3.0958876E-1,-7.068287E-1,2.1326959E-1,-1.4883893E-3],"split_indices":[8,16,3,10,5,8,8,0,0,0,0,0,0,0,0],"split_type":[0,0,0,0,0,0,0,0,0,0,0,0,0,0,0],"sum_hessian":[2.4E3,3.8E1,2.362E3,1.8E1,2E1,1.2E1,2.35E3,9E0,9E0,4E0,1.6E1,3E0,9E0,8.2E1,2.268E3],"tree_param":{"num_deleted":"0","num_feature":"42","num_nodes":"15","size_leaf_vector":"1"}},{"base_weights":[-4.3935527E-4,-4.5810604E-1,1.6858485E-1,2.506048E-1,-1.6643753E0,1.4305817E0,-1.5373378E-1,-1.0295128E-1,2.1894908E-1,-2.3137634E-1,3.136819E-1,-1.7616802E-1,2.094736E-1,1.013698E-2,-1.6478272E-1],"categories":[],"categories_nodes":[],"categories_segments":[],"categories_sizes":[],"default_left":[0,0,0,0,0,0,0,0,0,0,0,0,0,0,0],"id":74,"left_children":[1,3,5,7,9,11,13,-1,-1,-1,-1,-1,-1,-1,-1],"loss_changes":[1.8583974E2,5.545311E2,7.1381354E2,1.017509E3,7.5545667E2,7.6061865E2,5.3316736E2,0E0,0E0,0E0,0E0,0E0,0E0,0E0,0E0],"parents":[2147483647,0,0,1,1,2,2,3,3,4,4,5,5,6,6],"right_children":[2,4,6,8,10,12,14,-1,-1,-1,-1,-1,-1,-1,-1],"split_conditions":[-5.4009E0,-2.753E-1,-1.5923E0,-1.2E-1,4.9976E0,-9.4E-1,6.87E-2,-1.0295128E-1,2.1894908E-1,-2.3137634E-1,3.136819E-1,-1.7616802E-1,2.094736E-1,1.013698E-2,-1.6478272E-1],"split_indices":[6,5,6,10,3,12,16,0,0,0,0,0,0,0,0],"split_type":[0,0,0,0,0,0,0,0,0,0,0,0,0,0,0],"sum_hessian":[2.4E3,6.47E2,1.753E3,4.08E2,2.39E2,3.56E2,1.397E3,2.46E2,1.62E2,2.11E2,2.8E1,6.1E1,2.95E2,1.194E3,2.03E2],"tree_param":{"num_deleted":"0","num_feature":"42","num_nodes":"15","size_leaf_vector":"1"}},{"base_weights":[-3.5408145E-4,3.479152E-2,-2.078193E0,-1.3572982E-1,5.615144E-1,5.56709E0,-3.8716497E0,-3.123587E-1,-3.530653E-3,-1.7807314E-1,1.00877225E-1,-1.08671725E-1,9.796718E-1,-5.1135965E-2,-7.403748E-1],"categories":[],"categories_nodes":[],"categories_segments":[],"categories_sizes":[],"default_left":[0,0,0,0,0,0,0,0,0,0,0,0,0,0,0],"id":75,"left_children":[1,3,5,7,9,11,13,-1,-1,-1,-1,-1,-1,-1,-1],"loss_changes":[1.7561424E2,2.1226772E2,5.698436E2,5.351639E2,6.072249E2,2.3666226E2,3.8709537E2,0E0,0E0,0E0,0E0,0E0,0E0,0E0,0E0],"parents":[2147483647,0,0,1,1,2,2,3,3,4,4,5,5,6,6],"right_children":[2,4,6,8,10,12,14,-1,-1,-1,-1,-1,-1,-1,-1],"split_conditions":[1.555E-1,3.36E-2,-1.084E1,-2.41E0,6.56997E1,-6.2E-1,-3.692E0,-3.123587E-1,-3.530653E-3,-1.7807314E-1,1.00877225E-1,-1.08671725E-1,9.796718E-1,-5.1135965E-2,-7.403748E-1],"split_indices":[16,14,4,11,1,11,6,0,0,0,0,0,0,0,0],"split_type":[0,0,0,0,0,0,0,0,0,0,0,0,0,0,0],"sum_hessian":[2.4E3,2.361E3,3.9E1,1.784E3,5.77E2,7E0,3.2E1,5.7E1,1.727E3,9.2E1,4.85E2,3E0,4E0,1.7E1,1.5E1],"tree_param":{"num_deleted":"0","num_feature":"42","num_nodes":"15","size_leaf_vector":"1"}},{"base_weights":[-4.580649E-4,-7.107299E-2,1.0441737E0,-4.132887E0,-8.703686E-3,1.5528637E-1,5.7742696E0,2.0446356E-1,-8.5643846E-1,3.6718816E-2,-4.5919385E-2,7.1741246E-2,-7.40833E-1,9.288258E-1,-6.4139403E-3],"categories":[],"categories_nodes":[],"categories_segments":[],"categories_sizes":[],"default_left":[0,0,0,0,0,0,0,0,0,0,0,0,0,0,0],"id":76,"left_children":[1,3,5,7,9,11,13,-1,-1,-1,-1,-1,-1,-1,-1],"loss_changes":[1.770905E2,5.69548E2,6.375978E2,9.489358E2,3.7559476E2,5.531157E2,4.9390448E2,0E0,0E0,0E0,0E0,0E0,0E0,0E0,0E0],"parents":[2147483647,0,0,1,1,2,2,3,3,4,4,5,5,6,6],"right_children":[2,4,6,8,10,12,14,-1,-1,-1,-1,-1,-1,-1,-1],"split_conditions":[5.5517E0,-2.48E0,-2.25E0,-1.11E0,8.8E-3,-2.37E0,4.1627E0,2.0446356E-1,-8.5643846E-1,3.6718816E-2,-4.5919385E-2,7.1741246E-2,-7.40833E-1,9.288258E-1,-6.4139403E-3],"split_indices":[2,11,9,12,16,9,6,0,0,0,0,0,0,0,0],"split_type":[0,0,0,0,0,0,0,0,0,0,0,0,0,0,0],"sum_hessian":[2.4E3,2.249E3,1.51E2,3.3E1,2.216E3,1.28E2,2.3E1,1.4E1,1.9E1,1.208E3,1.008E3,1.2E2,8E0,1.4E1,9E0],"tree_param":{"num_deleted":"0","num_feature":"42","num_nodes":"15","size_leaf_vector":"1"}},{"base_weights":[-5.7111087E-4,-4.7008388E-2,1.591858E0,2.2267492E-2,-2.8165426E0,1.4061942E0,9.9940175E-1,-4.5109736E-3,2.650161E-1,-9.62302E-1,-1.3377653E-1,4.755671E-1,-2.957179E-2],"categories":[],"categories_nodes":[],"categories_segments":[],"categories_sizes":[],"default_left":[0,0,0,0,0,0,0,0,0,0,0,0,0],"id":77,"left_children":[1,3,5,7,9,-1,11,-1,-1,-1,-1,-1,-1],"loss_changes":[1.7746968E2,4.4814786E2,4.8682294E2,4.0372314E2,5.597506E2,0E0,3.2293036E2,0E0,0E0,0E0,0E0,0E0,0E0],"parents":[2147483647,0,0,1,1,2,2,3,3,4,4,6,6],"right_children":[2,4,6,8,10,-1,12,-1,-1,-1,-1,-1,-1],"split_conditions":[1.99041E1,1.73202E1,4.358E0,1.52985E1,1.80004E1,1.4061942E0,-3.2E-1,-4.5109736E-3,2.650161E-1,-9.62302E-1,-1.3377653E-1,4.755671E-1,-2.957179E-2],"split_indices":[6,6,3,6,6,0,12,0,0,0,0,0,0],"split_type":[0,0,0,0,0,0,0,0,0,0,0,0,0],"sum_hessian":[2.4E3,2.333E3,6.7E1,2.277E3,5.6E1,2E0,6.5E1,2.221E3,5.6E1,9E0,4.7E1,1.6E1,4.9E1],"tree_param":{"num_deleted":"0","num_feature":"42","num_nodes":"13","size_leaf_vector":"1"}},{"base_weights":[-8.499037E-5,3.511253E-2,-2.0809965E0,-1.8329386E-2,3.3066216E0,-2.9846063E-1,-7.3887577E0,3.9643412E-3,-3.3335164E-1,-2.1640275E-1,5.6192577E-1,-5.5472225E-1,2.0963609E-1,-1.0110288E0,2.2982402E-1],"categories":[],"categories_nodes":[],"categories_segments":[],"categories_sizes":[],"default_left":[0,0,0,0,0,0,0,0,0,0,0,0,0,0,0],"id":78,"left_children":[1,3,5,7,9,11,13,-1,-1,-1,-1,-1,-1,-1,-1],"loss_changes":[1.7613391E2,4.1335138E2,3.75477E2,4.473048E2,4.9326724E2,4.016393E2,2.8765155E2,0E0,0E0,0E0,0E0,0E0,0E0,0E0,0E0],"parents":[2147483647,0,0,1,1,2,2,3,3,4,4,5,5,6,6],"right_children":[2,4,6,8,10,12,14,-1,-1,-1,-1,-1,-1,-1,-1],"split_conditions":[1.75E0,1.52E0,3.01E-2,1.32E0,6.65E-2,-1.2376E1,4.229E0,3.9643412E-3,-3.3335164E-1,-2.1640275E-1,5.6192577E-1,-5.5472225E-1,2.0963609E-1,-1.0110288E0,2.2982402E-1],"split_indices":[10,10,16,10,5,4,6,0,0,0,0,0,0,0,0],"split_type":[0,0,0,0,0,0,0,0,0,0,0,0,0,0,0],"sum_hessian":[2.4E3,2.361E3,3.9E1,2.324E3,3.7E1,3E1,9E0,2.285E3,3.9E1,1.1E1,2.6E1,9E0,2.1E1,7E0,2E0],"tree_param":{"num_deleted":"0","num_feature":"42","num_nodes":"15","size_leaf_vector":"1"}},{"base_weights":[-5.375428E-4,2.501949E-2,-2.9029543E0,-1.6292566E-2,2.5088432E0,-5.869608E0,-1.3183191E0,6.05096E-4,-4.7627613E-1,7.2085273E-1,6.3624434E-2,-2.3013473E-1,-7.9454666E-1,-5.495226E-1,1.7550966E-2],"categories":[],"categories_nodes":[],"categories_segments":[],"categories_sizes":[],"default_left":[0,0,0,0,0,0,0,0,0,0,0,0,0,0,0],"id":79,"left_children":[1,3,5,7,9,11,13,-1,-1,-1,-1,-1,-1,-1,-1],"loss_changes":[1.784598E2,2.4460896E2,9.026553E1,2.4898628E2,3.378534E2,3.254045E1,9.509018E1,0E0,0E0,0E0,0E0,0E0,0E0,0E0,0E0],"parents":[2147483647,0,0,1,1,2,2,3,3,4,4,5,5,6,6],"right_children":[2,4,6,8,10,12,14,-1,-1,-1,-1,-1,-1,-1,-1],"split_conditions":[7.829E-1,3.63813E1,2.10823E1,2.2446E1,2.5886606E3,-2.74E-2,-1.2298E0,6.05096E-4,-4.7627613E-1,7.2085273E-1,6.3624434E-2,-2.3013473E-1,-7.9454666E-1,-5.495226E-1,1.7550966E-2],"split_indices":[5,0,3,3,8,15,2,0,0,0,0,0,0,0,0],"split_type":[0,0,0,0,0,0,0,0,0,0,0,0,0,0,0],"sum_hessian":[2.4E3,2.38E3,2E1,2.342E3,3.8E1,6E0,1.4E1,2.332E3,1E1,1E1,2.8E1,3E0,3E0,3E0,1.1E1],"tree_param":{"num_deleted":"0","num_feature":"42","num_nodes":"15","size_leaf_vector":"1"}},{"base_weights":[-1.0044326E-3,-4.480176E-1,1.6373546E-1,-7.6371133E-1,2.0054448E0,2.4180846E0,7.060957E-3,-5.5610623E-2,-4.9453378E-1,-2.578407E-1,3.2162276E-1,4.3182674E-1,-1.0680517E-1,-5.452363E-1,7.099075E-3],"categories":[],"categories_nodes":[],"categories_segments":[],"categories_sizes":[],"default_left":[0,0,0,0,0,0,0,0,0,0,0,0,0,0,0],"id":80,"left_children":[1,3,5,7,9,11,13,-1,-1,-1,-1,-1,-1,-1,-1],"loss_changes":[1.7691359E2,5.0253653E2,6.1960474E2,4.950047E2,4.190601E2,7.601068E2,5.7293945E2,0E0,0E0,0E0,0E0,0E0,0E0,0E0,0E0],"parents":[2147483647,0,0,1,1,2,2,3,3,4,4,5,5,6,6],"right_children":[2,4,6,8,10,12,14,-1,-1,-1,-1,-1,-1,-1,-1],"split_conditions":[-4.84E-2,1.5E0,-3.8E-2,1.25E0,6.522055E1,3.873E0,-3.57E-2,-5.5610623E-2,-4.9453378E-1,-2.578407E-1,3.2162276E-1,4.3182674E-1,-1.0680517E-1,-5.452363E-1,7.099075E-3],"split_indices":[16,11,16,11,1,4,16,0,0,0,0,0,0,0,0],"split_type":[0,0,0,0,0,0,0,0,0,0,0,0,0,0,0],"sum_hessian":[2.4E3,6.46E2,1.754E3,5.73E2,7.3E1,1.13E2,1.641E3,5.47E2,2.6E1,1.5E1,5.8E1,7.3E1,4E1,1.8E1,1.623E3],"tree_param":{"num_deleted":"0","num_feature":"42","num_nodes":"15","size_leaf_vector":"1"}},{"base_weights":[-1.208866E-3,-3.9240964E-2,1.9023399E0,-6.2754685E-3,-4.5667143E0,3.7741086E0,-2.7721224E0,-2.3827245E-3,5.830092E-1,-1.1311312E0,4.422372E-1,1.4887576E-1,9.945778E-1,2.203881E-1,-8.0772513E-1],"categories":[],"categories_nodes":[],"categories_segments":[],"categories_sizes":[],"default_left":[0,0,0,0,0,0,0,0,0,0,0,0,0,0,0],"id":81,"left_children":[1,3,5,7,9,11,13,-1,-1,-1,-1,-1,-1,-1,-1],"loss_changes":[1.7371103E2,3.5099872E2,4.2178955E2,2.3916223E2,1.0813838E3,4.636003E2,3.8796545E2,0E0,0E0,0E0,0E0,0E0,0E0,0E0,0E0],"parents":[2147483647,0,0,1,1,2,2,3,3,4,4,5,5,6,6],"right_children":[2,4,6,8,10,12,14,-1,-1,-1,-1,-1,-1,-1,-1],"split_conditions":[1.233E-1,1.193E-1,3.015E0,9.32E-2,6.9287E0,5E-1,-6.526E-1,-2.3827245E-3,5.830092E-1,-1.1311312E0,4.422372E-1,1.4887576E-1,9.945778E-1,2.203881E-1,-8.0772513E-1],"split_indices":[15,15,4,17,6,12,2,0,0,0,0,0,0,0,0],"split_type":[0,0,0,0,0,0,0,0,0,0,0,0,0,0,0],"sum_hessian":[2.4E3,2.354E3,4.6E1,2.338E3,1.6E1,3.3E1,1.3E1,2.332E3,6E0,9E0,7E0,2.5E1,8E0,7E0,6E0],"tree_param":{"num_deleted":"0","num_feature":"42","num_nodes":"15","size_leaf_vector":"1"}},{"base_weights":[-8.910561E-4,-1.4595726E0,4.6727467E-2,-1.000595E0,-8.444134E-1,5.3947415E0,3.0527972E-2,-1.4033337E-1,8.983065E-1,6.38231E-2,8.777567E-1,-1.671266E-2,4.3500688E-2],"categories":[],"categories_nodes":[],"categories_segments":[],"categories_sizes":[],"default_left":[0,0,0,0,0,0,0,0,0,0,0,0,0],"id":82,"left_children":[1,3,5,-1,7,9,11,-1,-1,-1,-1,-1,-1],"loss_changes":[1.6698357E2,3.900268E2,2.0080606E2,0E0,4.073282E2,1.0608943E2,1.8557677E2,0E0,0E0,0E0,0E0,0E0,0E0],"parents":[2147483647,0,0,1,1,2,2,4,4,5,5,6,6],"right_children":[2,4,6,-1,8,10,12,-1,-1,-1,-1,-1,-1],"split_conditions":[-9.09E-2,-1.6E0,-9.07E-2,-1.000595E0,1.37228E1,3.56E-2,4.8356E0,-1.4033337E-1,8.983065E-1,6.38231E-2,8.777567E-1,-1.671266E-2,4.3500688E-2],"split_indices":[14,11,14,0,6,15,3,0,0,0,0,0,0],"split_type":[0,0,0,0,0,0,0,0,0,0,0,0,0],"sum_hessian":[2.4E3,7.5E1,2.325E3,4E0,7.1E1,6E0,2.319E3,6.8E1,3E0,3E0,3E0,1.558E3,7.61E2],"tree_param":{"num_deleted":"0","num_feature":"42","num_nodes":"13","size_leaf_vector":"1"}},{"base_weights":[-4.8046056E-4,1.9861716E-1,-3.7355033E-1,-2.3326235E-1,8.6699224E-1,-1.2280835E0,3.9073512E-1,-5.1547248E-2,1.8243493E-1,1.9678263E-1,-1.2103752E-2,-6.1819978E-2,-5.519952E-1,-1.9666879E-1,8.474567E-2],"categories":[],"categories_nodes":[],"categories_segments":[],"categories_sizes":[],"default_left":[0,0,0,0,0,0,0,0,0,0,0,0,0,0,0],"id":83,"left_children":[1,3,5,7,9,11,13,-1,-1,-1,-1,-1,-1,-1,-1],"loss_changes":[1.7843155E2,4.5230328E2,5.465613E2,5.536157E2,6.6933167E2,1.0299023E3,4.7744995E2,0E0,0E0,0E0,0E0,0E0,0E0,0E0,0E0],"parents":[2147483647,0,0,1,1,2,2,3,3,4,4,5,5,6,6],"right_children":[2,4,6,8,10,12,14,-1,-1,-1,-1,-1,-1,-1,-1],"split_conditions":[3.306E0,-2.8752E0,6.596E0,1.74E0,4.3471E0,6.78E-2,-1.58E0,-5.1547248E-2,1.8243493E-1,1.9678263E-1,-1.2103752E-2,-6.1819978E-2,-5.519952E-1,-1.9666879E-1,8.474567E-2],"split_indices":[6,0,3,12,0,16,11,0,0,0,0,0,0,0,0],"split_type":[0,0,0,0,0,0,0,0,0,0,0,0,0,0,0],"sum_hessian":[2.4E3,1.565E3,8.35E2,9.51E2,6.14E2,3.94E2,4.41E2,8.37E2,1.14E2,2.9E2,3.24E2,3.46E2,4.8E1,7.1E1,3.7E2],"tree_param":{"num_deleted":"0","num_feature":"42","num_nodes":"15","size_leaf_vector":"1"}},{"base_weights":[-6.054924E-4,-6.321132E-2,1.1487225E0,-2.1369982E0,-4.1807317E-3,-3.4312543E-1,3.688011E0,2.4980901E-1,-4.3532738E-1,4.363896E-1,-4.198295E-3,4.3739703E-2,-8.448128E-1,-2.33234E-1,5.2181596E-1],"categories":[],"categories_nodes":[],"categories_segments":[],"categories_sizes":[],"default_left":[0,0,0,0,0,0,0,0,0,0,0,0,0,0,0],"id":84,"left_children":[1,3,5,7,9,11,13,-1,-1,-1,-1,-1,-1,-1,-1],"loss_changes":[1.7272713E2,2.7864252E2,4.7134076E2,6.582363E2,3.6566357E2,5.0426102E2,4.3621265E2,0E0,0E0,0E0,0E0,0E0,0E0,0E0,0E0],"parents":[2147483647,0,0,1,1,2,2,3,3,4,4,5,5,6,6],"right_children":[2,4,6,8,10,12,14,-1,-1,-1,-1,-1,-1,-1,-1],"split_conditions":[7.036655E1,-2.41E0,9.804E-1,-7.4E-1,-2.24E0,3.3E-1,-4.49E-2,2.4980901E-1,-4.3532738E-1,4.363896E-1,-4.198295E-3,4.3739703E-2,-8.448128E-1,-2.33234E-1,5.2181596E-1],"split_indices":[1,11,6,10,11,11,16,0,0,0,0,0,0,0,0],"split_type":[0,0,0,0,0,0,0,0,0,0,0,0,0,0,0],"sum_hessian":[2.4E3,2.277E3,1.23E2,6.2E1,2.215E3,7.8E1,4.5E1,2E1,4.2E1,1.8E1,2.197E3,7.2E1,6E0,9E0,3.6E1],"tree_param":{"num_deleted":"0","num_feature":"42","num_nodes":"15","size_leaf_vector":"1"}},{"base_weights":[-6.3928927E-4,-3.5193822E-1,2.0644741E-1,1.7329382E0,-6.388192E-1,-2.2119656E-1,1.0172924E0,3.527562E-1,-4.058858E-1,4.8781525E-2,-1.4253217E-1,-8.933305E-3,-5.520814E-1,-1.5379046E-1,1.5534166E-1],"categories":[],"categories_nodes":[],"categories_segments":[],"categories_sizes":[],"default_left":[0,0,0,0,0,0,0,0,0,0,0,0,0,0,0],"id":85,"left_children":[1,3,5,7,9,11,13,-1,-1,-1,-1,-1,-1,-1,-1],"loss_changes":[1.7475836E2,5.339149E2,5.242484E2,1.136827E3,6.95492E2,6.907837E2,7.1747974E2,0E0,0E0,0E0,0E0,0E0,0E0,0E0,0E0],"parents":[2147483647,0,0,1,1,2,2,3,3,4,4,5,5,6,6],"right_children":[2,4,6,8,10,12,14,-1,-1,-1,-1,-1,-1,-1,-1],"split_conditions":[-2.932E0,-3.6803E0,1.3E-1,1.10628E1,-9.178E0,1E-1,-4.189E0,3.527562E-1,-4.058858E-1,4.8781525E-2,-1.4253217E-1,-8.933305E-3,-5.520814E-1,-1.5379046E-1,1.5534166E-1],"split_indices":[4,2,10,6,4,10,2,0,0,0,0,0,0,0,0],"split_type":[0,0,0,0,0,0,0,0,0,0,0,0,0,0,0],"sum_hessian":[2.4E3,8.9E2,1.51E3,1.07E2,7.83E2,9.89E2,5.21E2,8.2E1,2.5E1,3.22E2,4.61E2,9.66E2,2.3E1,9E1,4.31E2],"tree_param":{"num_deleted":"0","num_feature":"42","num_nodes":"15","size_leaf_vector":"1"}},{"base_weights":[-8.7027467E-4,2.414058E-2,-2.8413453E0,-2.3269095E-2,1.6385795E0,-5.5858426E0,-1.3644902E0,-4.579123E-3,8.6312115E-1,-7.445705E-2,4.346016E-1,-7.088405E-1,-1.1862915E-1,-5.14998E-1,2.7140297E-4],"categories":[],"categories_nodes":[],"categories_segments":[],"categories_sizes":[],"default_left":[0,0,0,0,0,0,0,0,0,0,0,0,0,0,0],"id":86,"left_children":[1,3,5,7,9,11,13,-1,-1,-1,-1,-1,-1,-1,-1],"loss_changes":[1.7092386E2,1.8244145E2,7.680086E1,4.505755E2,4.4234753E2,3.7037796E1,7.816177E1,0E0,0E0,0E0,0E0,0E0,0E0,0E0,0E0],"parents":[2147483647,0,0,1,1,2,2,3,3,4,4,5,5,6,6],"right_children":[2,4,6,8,10,12,14,-1,-1,-1,-1,-1,-1,-1,-1],"split_conditions":[7.829E-1,1.94896E1,2.10823E1,2.62603E1,6.757095E1,6.795865E1,-1.2298E0,-4.579123E-3,8.6312115E-1,-7.445705E-2,4.346016E-1,-7.088405E-1,-1.1862915E-1,-5.14998E-1,2.7140297E-4],"split_indices":[5,6,3,3,1,1,2,0,0,0,0,0,0,0,0],"split_type":[0,0,0,0,0,0,0,0,0,0,0,0,0,0,0],"sum_hessian":[2.4E3,2.38E3,2E1,2.313E3,6.7E1,6E0,1.4E1,2.308E3,5E0,3.6E1,3.1E1,4E0,2E0,3E0,1.1E1],"tree_param":{"num_deleted":"0","num_feature":"42",